{"learner":{"attributes":{"scikit_learn":"{\"_estimator_type\": \"classifier\"}"},"feature_names":["age","sex","cp","trestbps","chol","fbs","restecg","thalach","exang","oldpeak","slope","ca","thal","stress","cp_restecg","thalach_per_age","oldpeak_slope","chol_ratio","ca_thal"],"feature_types":["float","float","float","float","float","float","float","float","float","float","float","float","float","int","float","float","float","float","float"],"gradient_booster":{"model":{"cats":{"enc":[],"feature_segments":[],"sorted_idx":[]},"gbtree_model_param":{"num_parallel_tree":"1","num_trees":"1250"},"iteration_indptr":[0,5,10,15,20,25,30,35,40,45,50,55,60,65,70,75,80,85,90,95,100,105,110,115,120,125,130,135,140,145,150,155,160,165,170,175,180,185,190,195,200,205,210,215,220,225,230,235,240,245,250,255,260,265,270,275,280,285,290,295,300,305,310,315,320,325,330,335,340,345,350,355,360,365,370,375,380,385,390,395,400,405,410,415,420,425,430,435,440,445,450,455,460,465,470,475,480,485,490,495,500,505,510,515,520,525,530,535,540,545,550,555,560,565,570,575,580,585,590,595,600,605,610,615,620,625,630,635,640,645,650,655,660,665,670,675,680,685,690,695,700,705,710,715,720,725,730,735,740,745,750,755,760,765,770,775,780,785,790,795,800,805,810,815,820,825,830,835,840,845,850,855,860,865,870,875,880,885,890,895,900,905,910,915,920,925,930,935,940,945,950,955,960,965,970,975,980,985,990,995,1000,1005,1010,1015,1020,1025,1030,1035,1040,1045,1050,1055,1060,1065,1070,1075,1080,1085,1090,1095,1100,1105,1110,1115,1120,1125,1130,1135,1140,1145,1150,1155,1160,1165,1170,1175,1180,1185,1190,1195,1200,1205,1210,1215,1220,1225,1230,1235,1240,1245,1250],"tree_info":[0,1,2,3,4,0,1,2,3,4,0,1,2,3,4,0,1,2,3,4,0,1,2,3,4,0,1,2,3,4,0,1,2,3,4,0,1,2,3,4,0,1,2,3,4,0,1,2,3,4,0,1,2,3,4,0,1,2,3,4,0,1,2,3,4,0,1,2,3,4,0,1,2,3,4,0,1,2,3,4,0,1,2,3,4,0,1,2,3,4,0,1,2,3,4,0,1,2,3,4,0,1,2,3,4,0,1,2,3,4,0,1,2,3,4,0,1,2,3,4,0,1,2,3,4,0,1,2,3,4,0,1,2,3,4,0,1,2,3,4,0,1,2,3,4,0,1,2,3,4,0,1,2,3,4,0,1,2,3,4,0,1,2,3,4,0,1,2,3,4,0,1,2,3,4,0,1,2,3,4,0,1,2,3,4,0,1,2,3,4,0,1,2,3,4,0,1,2,3,4,0,1,2,3,4,0,1,2,3,4,0,1,2,3,4,0,1,2,3,4,0,1,2,3,4,0,1,2,3,4,0,1,2,3,4,0,1,2,3,4,0,1,2,3,4,0,1,2,3,4,0,1,2,3,4,0,1,2,3,4,0,1,2,3,4,0,1,2,3,4,0,1,2,3,4,0,1,2,3,4,0,1,2,3,4,0,1,2,3,4,0,1,2,3,4,0,1,2,3,4,0,1,2,3,4,0,1,2,3,4,0,1,2,3,4,0,1,2,3,4,0,1,2,3,4,0,1,2,3,4,0,1,2,3,4,0,1,2,3,4,0,1,2,3,4,0,1,2,3,4,0,1,2,3,4,0,1,2,3,4,0,1,2,3,4,0,1,2,3,4,0,1,2,3,4,0,1,2,3,4,0,1,2,3,4,0,1,2,3,4,0,1,2,3,4,0,1,2,3,4,0,1,2,3,4,0,1,2,3,4,0,1,2,3,4,0,1,2,3,4,0,1,2,3,4,0,1,2,3,4,0,1,2,3,4,0,1,2,3,4,0,1,2,3,4,0,1,2,3,4,0,1,2,3,4,0,1,2,3,4,0,1,2,3,4,0,1,2,3,4,0,1,2,3,4,0,1,2,3,4,0,1,2,3,4,0,1,2,3,4,0,1,2,3,4,0,1,2,3,4,0,1,2,3,4,0,1,2,3,4,0,1,2,3,4,0,1,2,3,4,0,1,2,3,4,0,1,2,3,4,0,1,2,3,4,0,1,2,3,4,0,1,2,3,4,0,1,2,3,4,0,1,2,3,4,0,1,2,3,4,0,1,2,3,4,0,1,2,3,4,0,1,2,3,4,0,1,2,3,4,0,1,2,3,4,0,1,2,3,4,0,1,2,3,4,0,1,2,3,4,0,1,2,3,4,0,1,2,3,4,0,1,2,3,4,0,1,2,3,4,0,1,2,3,4,0,1,2,3,4,0,1,2,3,4,0,1,2,3,4,0,1,2,3,4,0,1,2,3,4,0,1,2,3,4,0,1,2,3,4,0,1,2,3,4,0,1,2,3,4,0,1,2,3,4,0,1,2,3,4,0,1,2,3,4,0,1,2,3,4,0,1,2,3,4,0,1,2,3,4,0,1,2,3,4,0,1,2,3,4,0,1,2,3,4,0,1,2,3,4,0,1,2,3,4,0,1,2,3,4,0,1,2,3,4,0,1,2,3,4,0,1,2,3,4,0,1,2,3,4,0,1,2,3,4,0,1,2,3,4,0,1,2,3,4,0,1,2,3,4,0,1,2,3,4,0,1,2,3,4,0,1,2,3,4,0,1,2,3,4,0,1,2,3,4,0,1,2,3,4,0,1,2,3,4,0,1,2,3,4,0,1,2,3,4,0,1,2,3,4,0,1,2,3,4,0,1,2,3,4,0,1,2,3,4,0,1,2,3,4,0,1,2,3,4,0,1,2,3,4,0,1,2,3,4,0,1,2,3,4,0,1,2,3,4,0,1,2,3,4,0,1,2,3,4,0,1,2,3,4,0,1,2,3,4,0,1,2,3,4,0,1,2,3,4,0,1,2,3,4,0,1,2,3,4,0,1,2,3,4,0,1,2,3,4,0,1,2,3,4,0,1,2,3,4,0,1,2,3,4,0,1,2,3,4,0,1,2,3,4,0,1,2,3,4,0,1,2,3,4,0,1,2,3,4,0,1,2,3,4,0,1,2,3,4,0,1,2,3,4,0,1,2,3,4,0,1,2,3,4,0,1,2,3,4,0,1,2,3,4,0,1,2,3,4,0,1,2,3,4,0,1,2,3,4,0,1,2,3,4,0,1,2,3,4,0,1,2,3,4,0,1,2,3,4,0,1,2,3,4,0,1,2,3,4,0,1,2,3,4,0,1,2,3,4,0,1,2,3,4,0,1,2,3,4,0,1,2,3,4,0,1,2,3,4,0,1,2,3,4,0,1,2,3,4,0,1,2,3,4,0,1,2,3,4,0,1,2,3,4,0,1,2,3,4,0,1,2,3,4,0,1,2,3,4,0,1,2,3,4,0,1,2,3,4,0,1,2,3,4,0,1,2,3,4,0,1,2,3,4,0,1,2,3,4,0,1,2,3,4,0,1,2,3,4,0,1,2,3,4,0,1,2,3,4,0,1,2,3,4,0,1,2,3,4,0,1,2,3,4,0,1,2,3,4,0,1,2,3,4,0,1,2,3,4,0,1,2,3,4,0,1,2,3,4,0,1,2,3,4,0,1,2,3,4,0,1,2,3,4,0,1,2,3,4,0,1,2,3,4,0,1,2,3,4,0,1,2,3,4,0,1,2,3,4,0,1,2,3,4,0,1,2,3,4,0,1,2,3,4],"trees":[{"base_weights":[2.145122E-2,8.642972E-1,-4.222159E-1,1.6133865E0,-1.1350737E-2,1.3864817E-1,-5.2737653E-1,1.963589E0,4.085603E-1,9.427609E-1,-4.7619045E-1,7.003891E-1,-2.3188405E-2,9.31677E-2,-4.4632167E-2,1.7919998E-1,6.5088755E-1,8.6206895E-1,-1.459854E-1,1.1525423E-1,1.7241378E-1,7.751938E-2,-4.7524747E-2,1.081081E0,-1.6494844E-2,7.6712325E-2,-3.8938053E-2,9.8876394E-2,-0E0,1.23076916E-1,1.9047618E-2,3.0769229E-2,-3.71134E-2,-2.1238936E-2,7.719298E-2,6.1538458E-2,-3.5955053E-2,1.1034482E-1,-0E0],"categories":[],"categories_nodes":[],"categories_segments":[],"categories_sizes":[],"default_left":[0,0,0,0,0,0,0,0,0,0,0,0,0,0,0,0,0,0,0,0,0,0,0,0,0,0,0,0,0,0,0,0,0,0,0,0,0,0,0],"id":0,"left_children":[1,3,5,7,9,11,13,15,17,19,21,23,-1,25,-1,-1,27,29,31,-1,33,35,-1,37,-1,-1,-1,-1,-1,-1,-1,-1,-1,-1,-1,-1,-1,-1,-1],"loss_changes":[8.055327E1,4.8741436E1,8.398853E0,1.609195E1,1.6078192E1,5.758548E0,2.3076477E0,9.703117E0,2.7111797E0,4.308407E0,1.6359115E0,3.7707953E0,0E0,3.6998272E0,0E0,0E0,2.5742965E0,2.0815964E0,1.1028787E0,0E0,2.268977E0,2.2265549E0,0E0,2.3858337E0,0E0,0E0,0E0,0E0,0E0,0E0,0E0,0E0,0E0,0E0,0E0,0E0,0E0,0E0,0E0],"parents":[2147483647,0,0,1,1,2,2,3,3,4,4,5,5,6,6,7,7,8,8,9,9,10,10,11,11,13,13,16,16,17,17,18,18,20,20,21,21,23,23],"right_children":[2,4,6,8,10,12,14,16,18,20,22,24,-1,26,-1,-1,28,30,32,-1,34,36,-1,38,-1,-1,-1,-1,-1,-1,-1,-1,-1,-1,-1,-1,-1,-1,-1],"split_conditions":[6E0,3E0,5.0552225E-1,1.4055386E2,4E0,3E0,2E0,6.00008E1,4E0,6E0,1E0,8E0,-2.3188405E-2,2.3018258E0,-4.4632167E-2,1.7919998E-1,1.8572044E0,1E0,2E0,1.1525423E-1,1.3641847E2,1.3007912E2,-4.7524747E-2,1.4055386E2,-1.6494844E-2,7.6712325E-2,-3.8938053E-2,9.8876394E-2,-0E0,1.23076916E-1,1.9047618E-2,3.0769229E-2,-3.71134E-2,-2.1238936E-2,7.719298E-2,6.1538458E-2,-3.5955053E-2,1.1034482E-1,-0E0],"split_indices":[12,18,9,3,2,18,2,0,2,18,1,14,0,9,0,0,17,1,10,0,3,3,0,3,0,0,0,0,0,0,0,0,0,0,0,0,0,0,0],"split_type":[0,0,0,0,0,0,0,0,0,0,0,0,0,0,0,0,0,0,0,0,0,0,0,0,0,0,0,0,0,0,0,0,0,0,0,0,0,0,0],"sum_hessian":[2.1344002E2,7.328001E1,1.4016E2,3.904E1,3.424E1,2.2080002E1,1.1808001E2,2.9760002E1,9.280001E0,1.0880001E1,2.3360003E1,9.280001E0,1.2800001E1,5.4400005E0,1.1264001E2,2.4000002E1,5.76E0,4.8E0,4.4800005E0,6.0800004E0,4.8E0,4.1600003E0,1.92E1,6.4000006E0,2.88E0,1.9200001E0,3.5200002E0,2.5600002E0,3.2000003E0,1.6000001E0,3.2000003E0,1.6000001E0,2.88E0,3.5200002E0,1.2800001E0,1.6000001E0,2.5600002E0,4.8E0,1.6000001E0],"tree_param":{"num_deleted":"0","num_feature":"19","num_nodes":"39","size_leaf_vector":"1"}},{"base_weights":[-3.7474234E-3,1.9236504E-1,-3.3101043E-1,3.286385E-1,-4.3513954E-1,6.217616E-1,-3.411189E-2,4.6962515E-1,-3.8054967E-1,7.719298E-2,-4.4367414E-2,-1.9047618E-2,1.0265487E-1,2.2972001E-1,8.0797476E-1,-4.6290796E-2,9.31677E-2,-4.5901638E-2,3.557951E-2,1.1014492E-1,3.728278E-2,-3.8938053E-2,7.6712325E-2],"categories":[],"categories_nodes":[],"categories_segments":[],"categories_sizes":[],"default_left":[0,0,0,0,0,0,0,0,0,0,0,0,0,0,0,0,0,0,0,0,0,0,0],"id":1,"left_children":[1,3,5,7,9,11,-1,13,15,-1,-1,-1,-1,17,19,-1,21,-1,-1,-1,-1,-1,-1],"loss_changes":[1.3764896E1,1.1611902E1,7.5684977E0,1.1253173E1,4.6091146E0,4.696116E0,0E0,7.350382E0,1.8292961E0,0E0,0E0,0E0,0E0,9.8819065E0,6.7730064E0,0E0,3.6998272E0,0E0,0E0,0E0,0E0,0E0,0E0],"parents":[2147483647,0,0,1,1,2,2,3,3,4,4,5,5,7,7,8,8,13,13,14,14,16,16],"right_children":[2,4,6,8,10,12,-1,14,16,-1,-1,-1,-1,18,20,-1,22,-1,-1,-1,-1,-1,-1],"split_conditions":[1.8861026E0,1E0,1.09603714E2,6.5E1,2E0,1.0463781E2,-3.411189E-2,5.659429E1,2.09426E0,7.719298E-2,-4.4367414E-2,-1.9047618E-2,1.0265487E-1,1E0,6E0,-4.6290796E-2,6E0,-4.5901638E-2,3.557951E-2,1.1014492E-1,3.728278E-2,-3.8938053E-2,7.6712325E-2],"split_indices":[9,5,7,0,2,7,0,0,15,0,0,0,0,1,12,0,12,0,0,0,0,0,0],"split_type":[0,0,0,0,0,0,0,0,0,0,0,0,0,0,0,0,0,0,0,0,0,0,0],"sum_hessian":[2.1248001E2,1.3312001E2,7.936001E1,1.0976001E2,2.3360003E1,6.7200003E0,7.264001E1,9.1840004E1,1.7920002E1,1.2800001E0,2.2080002E1,3.2000003E0,3.5200002E0,5.4720005E1,3.7120003E1,1.24800005E1,5.4400005E0,1.1200001E1,4.3520004E1,1.2800001E1,2.4320002E1,3.5200002E0,1.9200001E0],"tree_param":{"num_deleted":"0","num_feature":"19","num_nodes":"23","size_leaf_vector":"1"}},{"base_weights":[3.7843823E-2,-3.200883E-1,2.9272896E-1,-5.159038E-1,-5.9940055E-2,-1.9279127E-1,5.7740164E-1,-4.5478035E-2,-3.2679737E-2,2.917342E-1,-4.6943765E-2,-4.7464237E-1,3.0066815E-1,5.5741356E-3,1.0158311E0,3.950617E-2,-3.71134E-2,-4.4813275E-2,7.855361E-1,1.7241378E-1,-4.807396E-2,-4.324324E-2,8.1314874E-1,8.851674E-1,-2.524544E-1,1.2845445E0,-4.324324E-2,1.1866028E-1,1.8433179E-3,9.230769E-2,-3.8095236E-2,1.1191709E-1,-2.3140494E-2,-3.45679E-2,1.1503267E-1,-3.0312035E-2,9.230769E-2,1.1878787E-1,1.3559321E-2],"categories":[],"categories_nodes":[],"categories_segments":[],"categories_sizes":[],"default_left":[0,0,0,0,0,0,0,0,0,0,0,0,0,0,0,0,0,0,0,0,0,0,0,0,0,0,0,0,0,0,0,0,0,0,0,0,0,0,0],"id":2,"left_children":[1,3,5,7,9,11,13,-1,15,17,-1,19,21,23,25,-1,-1,-1,27,29,-1,-1,31,33,35,37,-1,-1,-1,-1,-1,-1,-1,-1,-1,-1,-1,-1,-1],"loss_changes":[1.986176E1,4.5843353E0,1.7675596E1,1.2912474E0,7.589882E0,6.779707E0,2.0141079E1,0E0,1.618639E0,1.0822166E1,0E0,2.6170573E0,8.182153E0,8.366796E0,1.9714893E1,0E0,0E0,0E0,8.499196E0,4.2415056E0,0E0,0E0,7.8701687E0,6.7082934E0,5.508651E0,8.47683E0,0E0,0E0,0E0,0E0,0E0,0E0,0E0,0E0,0E0,0E0,0E0,0E0,0E0],"parents":[2147483647,0,0,1,1,2,2,3,3,4,4,5,5,6,6,8,8,9,9,11,11,12,12,13,13,14,14,18,18,19,19,22,22,23,23,24,24,25,25],"right_children":[2,4,6,8,10,12,14,-1,16,18,-1,20,22,24,26,-1,-1,-1,28,30,-1,-1,32,34,36,38,-1,-1,-1,-1,-1,-1,-1,-1,-1,-1,-1,-1,-1],"split_conditions":[1.1520239E0,5.7004883E1,1.6592847E0,2.33683E0,2.63E2,2.612021E0,1.2682265E2,-4.5478035E-2,1.532455E2,1E0,-4.6943765E-2,1.4780644E0,1.3107475E2,1.4272159E0,3.4782748E0,3.950617E-2,-3.71134E-2,-4.4813275E-2,1.8649939E-1,1.23E2,-4.807396E-2,-4.324324E-2,1.4207389E0,5.135505E1,2.89766E0,1.56E2,-4.324324E-2,1.1866028E-1,1.8433179E-3,9.230769E-2,-3.8095236E-2,1.1191709E-1,-2.3140494E-2,-3.45679E-2,1.1503267E-1,-3.0312035E-2,9.230769E-2,1.1878787E-1,1.3559321E-2],"split_indices":[9,0,17,17,4,9,3,0,7,1,0,9,7,9,9,0,0,0,9,3,0,0,17,0,17,7,0,0,0,0,0,0,0,0,0,0,0,0,0],"split_type":[0,0,0,0,0,0,0,0,0,0,0,0,0,0,0,0,0,0,0,0,0,0,0,0,0,0,0,0,0,0,0,0,0,0,0,0,0,0,0],"sum_hessian":[2.1568001E2,8.9600006E1,1.2608001E2,5.0560005E1,3.904E1,4.6720005E1,7.936001E1,4.5440002E1,5.1200004E0,2.3680002E1,1.5360001E1,2.9760002E1,1.6960001E1,3.488E1,4.4480003E1,2.2400002E0,2.88E0,8.64E0,1.5040001E1,4.8E0,2.4960001E1,6.4000006E0,1.056E1,7.3600006E0,2.7520002E1,3.808E1,6.4000006E0,7.3600006E0,7.6800003E0,1.6000001E0,3.2000003E0,6.7200003E0,3.8400002E0,2.2400002E0,5.1200004E0,2.5920002E1,1.6000001E0,3.2000004E1,6.0800004E0],"tree_param":{"num_deleted":"0","num_feature":"19","num_nodes":"39","size_leaf_vector":"1"}},{"base_weights":[2.9885888E-2,-3.3831462E-1,3.1240037E-1,5.955678E-1,-4.968644E-1,2.4926203E-1,1.5575221E-1,1.0894941E0,-4.0310077E-2,7.6712325E-2,-5.4320985E-1,1.8486819E-1,1.4379084E0,-3.287671E-2,1.4832535E0,-4.917382E-2,-3.1657353E-1,4.7495118E-1,-1.348474E-1,-2.8070174E-2,1.5867768E-1,1.5867768E-1,4.955752E-2,3.2116786E-2,-4.2352937E-2,6.9147654E-2,1.0973936E-3,4.7926262E-2,-2.1035332E-2],"categories":[],"categories_nodes":[],"categories_segments":[],"categories_sizes":[],"default_left":[0,0,0,0,0,0,0,0,0,0,0,0,0,0,0,0,0,0,0,0,0,0,0,0,0,0,0,0,0],"id":3,"left_children":[1,3,5,7,9,11,-1,13,-1,-1,15,17,19,-1,21,-1,23,25,27,-1,-1,-1,-1,-1,-1,-1,-1,-1,-1],"loss_changes":[2.3077904E1,1.4563641E1,1.2464214E1,8.390529E0,6.115349E0,9.069181E0,0E0,6.68316E0,0E0,0E0,1.1172981E0,1.0900263E1,6.6684313E0,0E0,2.3834915E0,0E0,3.4952166E0,1.10300665E1,5.4560204E0,0E0,0E0,0E0,0E0,0E0,0E0,0E0,0E0,0E0,0E0],"parents":[2147483647,0,0,1,1,2,2,3,3,4,4,5,5,7,7,10,10,11,11,12,12,14,14,16,16,17,17,18,18],"right_children":[2,4,6,8,10,12,-1,14,-1,-1,16,18,20,-1,22,-1,24,26,28,-1,-1,-1,-1,-1,-1,-1,-1,-1,-1],"split_conditions":[7E0,1.1614378E2,4.2568984E0,6.465098E1,1.0227109E2,1.7220316E2,1.5575221E-1,1E0,-4.0310077E-2,7.6712325E-2,2E0,1.3373041E2,1E0,-3.287671E-2,1.2450027E2,-4.917382E-2,2.6E1,5.619716E1,1.14E2,-2.8070174E-2,1.5867768E-1,1.5867768E-1,4.955752E-2,3.2116786E-2,-4.2352937E-2,6.9147654E-2,1.0973936E-3,4.7926262E-2,-2.1035332E-2],"split_indices":[12,7,9,0,3,3,0,6,0,0,11,3,5,0,3,0,13,0,7,0,0,0,0,0,0,0,0,0,0],"split_type":[0,0,0,0,0,0,0,0,0,0,0,0,0,0,0,0,0,0,0,0,0,0,0,0,0,0,0,0,0],"sum_hessian":[2.1984001E2,9.536001E1,1.2448001E2,1.3440001E1,8.1920006E1,1.2096001E2,3.5200002E0,9.280001E0,4.1600003E0,1.9200001E0,8.000001E1,1.1584001E2,5.1200004E0,1.9200001E0,7.3600006E0,5.9520004E1,2.0480001E1,6.0480003E1,5.5360004E1,1.2800001E0,3.8400002E0,3.8400002E0,3.5200002E0,4.4800005E0,1.6000002E1,3.2320004E1,2.8160002E1,7.6800003E0,4.7680004E1],"tree_param":{"num_deleted":"0","num_feature":"19","num_nodes":"29","size_leaf_vector":"1"}},{"base_weights":[-3.74566E-2,-2.1352312E-1,1.1303744E0,-4.946876E-2,1.7762351E-1,1.8956742E0,1.9830027E-1,-4.312668E-1,6.7229974E-1,1.7577854E-1,8.5271317E-1,-4.5283016E-2,1.5575221E-1,-4.8654463E-2,4.0669855E-1,9.9632686E-1,-4.5791242E-2,1.382716E-1,-3.287671E-2,-4.1379306E-2,1.4382021E-1,-3.966942E-2,9.224571E-2],"categories":[],"categories_nodes":[],"categories_segments":[],"categories_sizes":[],"default_left":[0,0,0,0,0,0,0,0,0,0,0,0,0,0,0,0,0,0,0,0,0,0,0],"id":4,"left_children":[1,3,5,-1,7,9,11,13,15,-1,17,-1,-1,-1,19,21,-1,-1,-1,-1,-1,-1,-1],"loss_changes":[4.5254803E1,3.0367428E1,2.0196129E1,0E0,2.9795849E1,3.0705338E0,1.9973728E1,6.8473377E0,2.252667E1,0E0,6.420224E0,0E0,0E0,0E0,1.1674567E1,1.076017E1,0E0,0E0,0E0,0E0,0E0,0E0,0E0],"parents":[2147483647,0,0,1,1,2,2,4,4,5,5,6,6,7,7,8,8,10,10,14,14,15,15],"right_children":[2,4,6,-1,8,10,12,14,16,-1,18,-1,-1,-1,20,22,-1,-1,-1,-1,-1,-1,-1],"split_conditions":[6.9565496E0,6E0,8.1501255E0,-4.946876E-2,7E0,2.4175446E2,2.1731217E0,2.471436E0,2.594857E0,1.7577854E-1,1E0,-4.5283016E-2,1.5575221E-1,-4.8654463E-2,1.4292651E2,5.3008213E1,-4.5791242E-2,1.382716E-1,-3.287671E-2,-4.1379306E-2,1.4382021E-1,-3.966942E-2,9.224571E-2],"split_indices":[16,14,16,0,18,4,17,9,9,0,1,0,0,0,3,0,0,0,0,0,0,0,0],"split_type":[0,0,0,0,0,0,0,0,0,0,0,0,0,0,0,0,0,0,0,0,0,0,0],"sum_hessian":[2.1792001E2,1.9008002E2,2.7840002E1,9.312001E1,9.696001E1,1.4720001E1,1.3120001E1,4.3520004E1,5.3440002E1,1.056E1,4.1600003E0,9.6E0,3.5200002E0,3.6160004E1,7.3600006E0,4.256E1,1.0880001E1,2.2400002E0,1.9200001E0,4.8E0,2.5600002E0,3.8400002E0,3.872E1],"tree_param":{"num_deleted":"0","num_feature":"19","num_nodes":"23","size_leaf_vector":"1"}},{"base_weights":[2.8035311E-2,7.683791E-1,-4.0333626E-1,6.27428E-2,1.6102766E0,1.3020094E-1,-5.0423443E-1,7.6504105E-1,-3.0901238E-1,1.8620182E0,6.841046E-1,1.089348E0,-1.6431962E-1,2.6461902E-1,-5.426719E-1,1.3646603E0,4.04934E-2,1.22206695E-1,-3.9826162E-2,1.5571253E-1,5.289501E-3,-2.1043982E-2,1.270881E0,1.24469705E-1,3.890149E-1,3.9895827E-1,-4.274308E-1,-2.3585645E-2,1.08099125E-1,-2.926666E-1,-4.724711E-2,1.318702E-1,2.030079E-2,-2.7274167E-2,4.8234403E-2,4.2258814E-2,-2.6020162E-2,1.4205945E-1,-2.2908226E-3,7.499418E-2,-2.7676849E-2,9.812864E-2,-2.0408846E-2,1.4986671E-2,-4.5560483E-2,1.8768305E-2,-3.628737E-2],"categories":[],"categories_nodes":[],"categories_segments":[],"categories_sizes":[],"default_left":[0,0,0,0,0,0,0,0,0,0,0,0,0,0,0,0,0,0,0,0,0,0,0,0,0,0,0,0,0,0,0,0,0,0,0,0,0,0,0,0,0,0,0,0,0,0,0],"id":5,"left_children":[1,3,5,7,9,11,13,15,17,19,21,23,25,27,29,31,33,35,-1,-1,-1,-1,37,-1,39,41,43,-1,-1,45,-1,-1,-1,-1,-1,-1,-1,-1,-1,-1,-1,-1,-1,-1,-1,-1,-1],"loss_changes":[7.140463E1,4.879146E1,7.6729736E0,1.21976795E1,7.466362E0,6.7521534E0,3.6617107E0,6.95899E0,2.557924E0,4.2502975E0,5.665396E0,1.2235775E0,2.937688E0,4.2526236E0,1.1892776E0,2.3564224E0,1.9950131E0,2.0144784E0,0E0,0E0,0E0,0E0,4.049262E0,0E0,1.7638147E0,3.8109994E0,1.2604263E0,0E0,0E0,1.8263737E0,0E0,0E0,0E0,0E0,0E0,0E0,0E0,0E0,0E0,0E0,0E0,0E0,0E0,0E0,0E0,0E0,0E0],"parents":[2147483647,0,0,1,1,2,2,3,3,4,4,5,5,6,6,7,7,8,8,9,9,10,10,11,11,12,12,13,13,14,14,15,15,16,16,17,17,22,22,24,24,25,25,26,26,29,29],"right_children":[2,4,6,8,10,12,14,16,18,20,22,24,26,28,30,32,34,36,-1,-1,-1,-1,38,-1,40,42,44,-1,-1,46,-1,-1,-1,-1,-1,-1,-1,-1,-1,-1,-1,-1,-1,-1,-1,-1,-1],"split_conditions":[6E0,2.7307692E0,5.0552225E-1,4E0,1E0,1.2003097E2,2E0,2.40625E0,1E0,3.0183825E0,1.1780305E2,4E0,2.3445169E2,1.2676839E2,4E0,2E0,2.6112936E0,1.4055386E2,-3.9826162E-2,1.5571253E-1,5.289501E-3,-2.1043982E-2,6.4E1,1.24469705E-1,2.1431923E0,1E0,2.0480058E0,-2.3585645E-2,1.08099125E-1,2.400598E0,-4.724711E-2,1.318702E-1,2.030079E-2,-2.7274167E-2,4.8234403E-2,4.2258814E-2,-2.6020162E-2,1.4205945E-1,-2.2908226E-3,7.499418E-2,-2.7676849E-2,9.812864E-2,-2.0408846E-2,1.4986671E-2,-4.5560483E-2,1.8768305E-2,-3.628737E-2],"split_indices":[12,15,9,2,11,3,2,15,11,9,3,2,4,3,2,11,15,3,0,0,0,0,13,0,17,11,15,0,0,16,0,0,0,0,0,0,0,0,0,0,0,0,0,0,0,0,0],"split_type":[0,0,0,0,0,0,0,0,0,0,0,0,0,0,0,0,0,0,0,0,0,0,0,0,0,0,0,0,0,0,0,0,0,0,0,0,0,0,0,0,0,0,0,0,0,0,0],"sum_hessian":[2.2161397E2,8.130042E1,1.4031354E2,4.4814056E1,3.648637E1,2.226874E1,1.180448E2,1.514503E1,2.9669025E1,2.7894072E1,8.592298E0,4.59753E0,1.767121E1,5.340288E0,1.12704506E2,7.803536E0,7.3414946E0,9.142332E0,2.0526693E1,2.6562122E1,1.3319486E0,3.497866E0,5.094432E0,2.0261822E0,2.5713477E0,5.4618893E0,1.220932E1,4.0063334E0,1.3339548E0,1.9270277E1,9.343423E1,5.8306117E0,1.9729245E0,4.6094213E0,2.7320733E0,4.698418E0,4.443914E0,3.4050899E0,1.689342E0,1.3148215E0,1.2565262E0,2.024617E0,3.4372725E0,2.2321565E0,9.977163E0,4.39904E0,1.4871238E1],"tree_param":{"num_deleted":"0","num_feature":"19","num_nodes":"47","size_leaf_vector":"1"}},{"base_weights":[-7.885885E-3,1.3898268E-1,-3.8422233E-1,2.929849E-1,-2.9790196E-1,4.044646E-2,-4.1186112E-1,1.881904E-1,6.5095264E-1,6.1592335E-1,-4.3538183E-2,-2.945155E-1,-4.7432754E-2,1.0825962E0,1.0971645E-1,8.6003685E-1,-2.5599321E-2,-1.4318341E-1,1.3350524E0,-3.5254896E-1,3.3113414E-1,1.164162E-1,-2.8650953E-2,-1.9739015E-2,1.8645847E-2,7.2460785E-3,9.6180454E-2,4.0974043E-2,-3.7781358E-2,1.3857937E-1,7.902982E-3,-3.345263E-2,2.0117942E-2,-3.028415E-2,7.9614006E-2],"categories":[],"categories_nodes":[],"categories_segments":[],"categories_sizes":[],"default_left":[0,0,0,0,0,0,0,0,0,0,0,0,0,0,0,0,0,0,0,0,0,0,0,0,0,0,0,0,0,0,0,0,0,0,0],"id":6,"left_children":[1,3,5,7,9,-1,11,13,15,17,-1,19,-1,21,23,25,-1,27,29,31,33,-1,-1,-1,-1,-1,-1,-1,-1,-1,-1,-1,-1,-1,-1],"loss_changes":[1.2195818E1,1.0768276E1,1.7313566E0,4.299553E0,9.760313E0,0E0,1.1132326E0,6.3800693E0,5.6118803E0,5.30033E0,0E0,1.5243108E0,0E0,4.4699936E0,3.8494205E0,5.658222E0,0E0,1.4186119E0,2.2364254E0,1.5302463E0,2.1704981E0,0E0,0E0,0E0,0E0,0E0,0E0,0E0,0E0,0E0,0E0,0E0,0E0,0E0,0E0],"parents":[2147483647,0,0,1,1,2,2,3,3,4,4,6,6,7,7,8,8,9,9,11,11,13,13,14,14,15,15,17,17,18,18,19,19,20,20],"right_children":[2,4,6,8,10,-1,12,14,16,18,-1,20,-1,22,24,26,-1,28,30,32,34,-1,-1,-1,-1,-1,-1,-1,-1,-1,-1,-1,-1,-1,-1],"split_conditions":[2.3407211E0,9E0,1.537079E0,1.4013679E0,1.2395166E2,4.044646E-2,2.59E2,2E0,1E0,1E0,-4.3538183E-2,9.3E1,-4.7432754E-2,2.8703704E0,2.12E2,1E0,-2.5599321E-2,1.7631466E0,1E0,1E0,5.4705424E0,1.164162E-1,-2.8650953E-2,-1.9739015E-2,1.8645847E-2,7.2460785E-3,9.6180454E-2,4.0974043E-2,-3.7781358E-2,1.3857937E-1,7.902982E-3,-3.345263E-2,2.0117942E-2,-3.028415E-2,7.9614006E-2],"split_indices":[9,18,15,9,3,0,4,2,5,6,0,13,0,15,4,8,0,15,8,5,16,0,0,0,0,0,0,0,0,0,0,0,0,0,0],"split_type":[0,0,0,0,0,0,0,0,0,0,0,0,0,0,0,0,0,0,0,0,0,0,0,0,0,0,0,0,0,0,0,0,0,0,0],"sum_hessian":[2.1868477E2,1.5775156E2,6.093322E1,1.1688046E2,4.0871086E1,1.3147187E0,5.9618504E1,9.159259E1,2.5287872E1,8.359247E0,3.251184E1,3.776683E1,2.185167E1,6.3558836E0,8.523671E1,2.0901209E1,4.3866644E0,4.456206E0,3.9030414E0,3.4960503E1,2.806328E0,5.0418925E0,1.3139911E0,2.1656729E1,6.357998E1,6.8235326E0,1.4077676E1,1.3036537E0,3.1525524E0,2.650344E0,1.2526977E0,3.1812721E1,3.1477838E0,1.5643618E0,1.2419664E0],"tree_param":{"num_deleted":"0","num_feature":"19","num_nodes":"35","size_leaf_vector":"1"}},{"base_weights":[1.127927E-3,-2.4478745E-1,2.1932572E-1,-4.3625054E-1,6.36835E-1,6.6817474E-1,-3.0515218E-2,8.3872455E-1,-5.133339E-1,1.3224901E0,-4.311898E-2,7.9696906E-1,-3.915987E-2,-3.4574854E-1,2.862266E-1,1.038295E-1,-2.7489185E-2,-2.2744092E-1,-4.750993E-2,-3.4307607E-2,1.4071627E-1,1.4084549E-1,5.2730066E-1,3.159133E-1,-4.5413205E-1,8.314779E-1,-3.2115206E-1,4.3248586E-2,-3.1939764E-2,-3.427016E-2,6.677218E-2,-3.8343128E-2,1.1523357E-1,-4.768105E-2,-1.983393E-3,1.257601E-1,1.7520633E-4,-4.4901427E-2,-1.3227974E-3],"categories":[],"categories_nodes":[],"categories_segments":[],"categories_sizes":[],"default_left":[0,0,0,0,0,0,0,0,0,0,0,0,0,0,0,0,0,0,0,0,0,0,0,0,0,0,0,0,0,0,0,0,0,0,0,0,0,0,0],"id":7,"left_children":[1,3,5,7,9,11,13,15,17,19,-1,21,-1,23,25,-1,-1,27,-1,-1,-1,-1,29,31,33,35,37,-1,-1,-1,-1,-1,-1,-1,-1,-1,-1,-1,-1],"loss_changes":[1.1665685E1,1.753133E1,1.2938221E1,8.742043E0,1.5743625E1,6.538311E0,7.583336E0,3.269494E0,1.7154903E0,9.977592E0,0E0,8.812782E0,0E0,2.870102E0,1.2830653E1,0E0,0E0,2.7606444E0,0E0,0E0,0E0,0E0,9.380239E0,6.003091E0,2.0003047E0,1.2444102E1,1.3561075E0,0E0,0E0,0E0,0E0,0E0,0E0,0E0,0E0,0E0,0E0,0E0,0E0],"parents":[2147483647,0,0,1,1,2,2,3,3,4,4,5,5,6,6,7,7,8,8,9,9,11,11,13,13,14,14,17,17,22,22,23,23,24,24,25,25,26,26],"right_children":[2,4,6,8,10,12,14,16,18,20,-1,22,-1,24,26,-1,-1,28,-1,-1,-1,-1,30,32,34,36,38,-1,-1,-1,-1,-1,-1,-1,-1,-1,-1,-1,-1],"split_conditions":[6E0,2.8818607E2,1E0,1.06E2,1.5685982E2,2.913202E0,1.4E2,1.7237889E0,1.1780305E2,4E0,-4.311898E-2,1.3256843E-1,-3.915987E-2,1.6518807E0,1.524264E2,1.038295E-1,-2.7489185E-2,2.0434783E0,-4.750993E-2,-3.4307607E-2,1.4071627E-1,1.4084549E-1,1.2021627E0,1E0,2.6385489E0,2.5679422E2,1.4E1,4.3248586E-2,-3.1939764E-2,-3.427016E-2,6.677218E-2,-3.8343128E-2,1.1523357E-1,-4.768105E-2,-1.983393E-3,1.257601E-1,1.7520633E-4,-4.4901427E-2,-1.3227974E-3],"split_indices":[18,4,6,7,7,15,7,9,3,2,0,9,0,15,7,0,0,15,0,0,0,0,9,8,9,4,18,0,0,0,0,0,0,0,0,0,0,0,0],"split_type":[0,0,0,0,0,0,0,0,0,0,0,0,0,0,0,0,0,0,0,0,0,0,0,0,0,0,0,0,0,0,0,0,0,0,0,0,0,0,0],"sum_hessian":[2.1540677E2,1.01213875E2,1.141929E2,8.357004E1,1.7643839E1,4.023491E1,7.395799E1,4.201165E0,7.9368866E1,1.1066131E1,6.5777082E0,3.6487186E1,3.7477217E0,3.7021366E1,3.6936626E1,2.9556637E0,1.2455015E0,1.828537E1,6.10835E1,2.2111628E0,8.854968E0,6.7694445E0,2.9717743E1,4.941236E0,3.2080128E1,1.9269342E1,1.7667284E1,2.950178E0,1.5335192E1,7.1358356E0,2.2581907E1,3.2305257E0,1.71071E0,2.382021E1,8.259918E0,9.706337E0,9.5630045E0,9.408476E0,8.258809E0],"tree_param":{"num_deleted":"0","num_feature":"19","num_nodes":"39","size_leaf_vector":"1"}},{"base_weights":[-2.621843E-2,5.782231E-1,-1.6415463E-1,-4.4547036E-2,8.9264613E-1,-3.7701565E-1,5.01415E-1,5.867993E-1,1.4611481E-1,-3.9678267E-1,7.629751E-2,1.3908293E0,2.0966652E-1,1.2913366E-1,2.6107255E-1,-4.3821022E-1,2.8244215E-1,1.3963194E-1,-3.07568E-2,8.0666757E-1,-4.067007E-2,9.5874995E-2,-8.348905E-4,-3.717248E-2,2.9260783E-2,1.270193E-1,-2.9638832E-2,1.4087354E-1,-3.9885636E-2,-4.1060887E-2,4.5632657E-2],"categories":[],"categories_nodes":[],"categories_segments":[],"categories_sizes":[],"default_left":[0,0,0,0,0,0,0,0,0,0,0,0,0,0,0,0,0,0,0,0,0,0,0,0,0,0,0,0,0,0,0],"id":8,"left_children":[1,3,5,-1,7,9,11,13,-1,15,-1,17,19,-1,21,23,25,-1,-1,27,29,-1,-1,-1,-1,-1,-1,-1,-1,-1,-1],"loss_changes":[1.840843E1,1.5141491E1,2.5636555E1,0E0,8.214899E0,3.973362E0,1.1114003E1,8.268388E0,0E0,3.9329395E0,0E0,7.3933125E0,5.1553054E0,0E0,5.333987E0,2.8910465E0,7.738804E0,0E0,0E0,1.3550274E1,7.541719E0,0E0,0E0,0E0,0E0,0E0,0E0,0E0,0E0,0E0,0E0],"parents":[2147483647,0,0,1,1,2,2,4,4,5,5,6,6,7,7,9,9,11,11,12,12,14,14,15,15,16,16,19,19,20,20],"right_children":[2,4,6,-1,8,10,12,14,-1,16,-1,18,20,-1,22,24,26,-1,-1,28,30,-1,-1,-1,-1,-1,-1,-1,-1,-1,-1],"split_conditions":[1.2063795E2,1E0,1.4E1,-4.4547036E-2,5.125777E0,1.0596102E1,5.619716E1,1.8103352E2,1.4611481E-1,2.5729575E0,7.629751E-2,2.2146187E0,1E0,1.2913366E-1,9.263011E-1,1.7699411E2,1.340848E2,1.3963194E-1,-3.07568E-2,3.02E2,1.9602212E0,9.5874995E-2,-8.348905E-4,-3.717248E-2,2.9260783E-2,1.270193E-1,-2.9638832E-2,1.4087354E-1,-3.9885636E-2,-4.1060887E-2,4.5632657E-2],"split_indices":[7,1,18,0,16,16,0,4,0,17,0,17,1,0,16,3,7,0,0,4,17,0,0,0,0,0,0,0,0,0,0],"split_type":[0,0,0,0,0,0,0,0,0,0,0,0,0,0,0,0,0,0,0,0,0,0,0,0,0,0,0,0,0,0,0],"sum_hessian":[2.1865398E2,4.0033543E1,1.7862042E2,8.516859E0,3.1516685E1,1.3566568E2,4.295475E1,2.4967432E1,6.549253E0,1.3437152E2,1.2941511E0,9.679362E0,3.327539E1,5.0581074E0,1.9909325E1,1.2698145E2,7.3900695E0,8.082017E0,1.5973454E0,9.174284E0,2.4101105E1,3.7047923E0,1.6204533E1,1.2334615E2,3.6353014E0,1.9866784E0,5.403391E0,5.0980287E0,4.076256E0,1.3680815E1,1.042029E1],"tree_param":{"num_deleted":"0","num_feature":"19","num_nodes":"31","size_leaf_vector":"1"}},{"base_weights":[-2.8740198E-3,-2.718352E-1,6.617616E-1,-4.8916E-2,2.7003366E-1,1.4539696E0,3.024182E-1,-4.7554594E-2,8.712227E-1,-1.9859945E-2,1.4509974E-1,-4.1992143E-1,1.0196769E0,1.6456807E0,-3.3166412E-2,5.2561447E-2,-5.0065243E-1,4.9747583E-1,1.5177825E-1,-2.9353887E-2,1.452764E-1,-4.703471E-2,1.3944499E-1,8.029948E-3,-4.694506E-2,8.994749E-2,-4.204646E-2],"categories":[],"categories_nodes":[],"categories_segments":[],"categories_sizes":[],"default_left":[0,0,0,0,0,0,0,0,0,0,0,0,0,0,0,0,0,0,0,0,0,0,0,0,0,0,0],"id":9,"left_children":[1,3,5,-1,7,9,11,-1,13,-1,-1,15,17,19,21,-1,23,25,-1,-1,-1,-1,-1,-1,-1,-1,-1],"loss_changes":[3.9107033E1,2.8824417E1,1.750224E1,0E0,3.2061253E1,1.2334133E1,2.35467E1,0E0,2.541236E1,0E0,0E0,2.3234172E0,9.44998E0,7.356682E0,1.8447882E1,0E0,1.193408E0,1.0579475E1,0E0,0E0,0E0,0E0,0E0,0E0,0E0,0E0,0E0],"parents":[2147483647,0,0,1,1,2,2,4,4,5,5,6,6,8,8,11,11,12,12,13,13,14,14,16,16,17,17],"right_children":[2,4,6,-1,8,10,12,-1,14,-1,-1,16,18,20,22,-1,24,26,-1,-1,-1,-1,-1,-1,-1,-1,-1],"split_conditions":[2.3018258E0,8E0,2.6712878E0,-4.8916E-2,7E0,1.2063795E2,3.5524993E0,-4.7554594E-2,1.8847755E0,-1.9859945E-2,1.4509974E-1,1.273743E0,2.1731217E0,1.0828996E2,6.599956E1,5.2561447E-2,5.135505E1,6E0,1.5177825E-1,-2.9353887E-2,1.452764E-1,-4.703471E-2,1.3944499E-1,8.029948E-3,-4.694506E-2,8.994749E-2,-4.204646E-2],"split_indices":[9,14,9,0,18,7,9,0,17,0,0,17,17,7,0,0,0,18,0,0,0,0,0,0,0,0,0],"split_type":[0,0,0,0,0,0,0,0,0,0,0,0,0,0,0,0,0,0,0,0,0,0,0,0,0,0,0],"sum_hessian":[2.167606E2,1.5473448E2,6.2026127E1,9.504001E1,5.969447E1,1.8404783E1,4.3621346E1,2.4490356E1,3.5204113E1,3.2653549E0,1.5139427E1,2.1940235E1,2.1681108E1,1.8522785E1,1.6681328E1,1.0322195E0,2.0908016E1,1.4574945E1,7.106164E0,1.3547741E0,1.716801E1,1.3221021E1,3.4603074E0,2.6008022E0,1.8307213E1,8.975991E0,5.5989532E0],"tree_param":{"num_deleted":"0","num_feature":"19","num_nodes":"27","size_leaf_vector":"1"}},{"base_weights":[1.1510917E-2,7.283948E-1,-4.005971E-1,9.066817E-2,1.3846042E0,1.429739E-1,-5.293127E-1,8.099564E-1,-3.1142983E-1,1.6008638E0,4.4275466E-1,6.4399207E-1,-2.530592E-2,1.4011006E-1,-4.490444E-2,1.3223131E0,1.5330954E-2,1.736134E-1,-4.2536467E-2,1.3321957E-1,5.103185E-3,9.933868E-2,1.192415E-1,-2.0988137E-2,9.642331E-1,-3.6640264E-2,6.976535E-2,1.2947755E-1,2.9980117E-2,5.58651E-2,-2.663408E-2,8.9453615E-2,-6.284725E-3,-2.4924763E-2,5.7544615E-2,1.3818167E-1,1.055078E-2],"categories":[],"categories_nodes":[],"categories_segments":[],"categories_sizes":[],"default_left":[0,0,0,0,0,0,0,0,0,0,0,0,0,0,0,0,0,0,0,0,0,0,0,0,0,0,0,0,0,0,0,0,0,0,0,0,0],"id":10,"left_children":[1,3,5,7,9,11,13,15,17,19,21,23,-1,25,-1,27,29,31,-1,-1,-1,-1,33,-1,35,-1,-1,-1,-1,-1,-1,-1,-1,-1,-1,-1,-1],"loss_changes":[6.60458E1,3.4021442E1,1.00088005E1,1.2530236E1,7.4682693E0,6.6398273E0,2.541607E0,6.290118E0,3.078779E0,3.0868301E0,2.1469607E0,4.231209E0,0E0,3.0461686E0,0E0,2.0346775E0,1.9183497E0,2.3467042E0,0E0,0E0,0E0,0E0,2.1438384E0,0E0,6.3403606E0,0E0,0E0,0E0,0E0,0E0,0E0,0E0,0E0,0E0,0E0,0E0,0E0],"parents":[2147483647,0,0,1,1,2,2,3,3,4,4,5,5,6,6,7,7,8,8,9,9,10,10,11,11,13,13,15,15,16,16,17,17,22,22,24,24],"right_children":[2,4,6,8,10,12,14,16,18,20,22,24,-1,26,-1,28,30,32,-1,-1,-1,-1,34,-1,36,-1,-1,-1,-1,-1,-1,-1,-1,-1,-1,-1,-1],"split_conditions":[6E0,2.7307692E0,6.0082006E-1,4E0,1E0,1E0,2E0,2.40625E0,1E0,3.0183825E0,2.8032787E0,4.2E1,-2.530592E-2,4E1,-4.490444E-2,2.706479E2,1E0,2.2309544E2,-4.2536467E-2,1.3321957E-1,5.103185E-3,9.933868E-2,3.42E0,-2.0988137E-2,2.400608E2,-3.6640264E-2,6.976535E-2,1.2947755E-1,2.9980117E-2,5.58651E-2,-2.663408E-2,8.9453615E-2,-6.284725E-3,-2.4924763E-2,5.7544615E-2,1.3818167E-1,1.055078E-2],"split_indices":[12,15,9,2,11,11,2,15,8,9,15,0,0,0,0,4,1,4,0,0,0,0,15,0,4,0,0,0,0,0,0,0,0,0,0,0,0],"split_type":[0,0,0,0,0,0,0,0,0,0,0,0,0,0,0,0,0,0,0,0,0,0,0,0,0,0,0,0,0,0,0,0,0,0,0,0,0],"sum_hessian":[2.2156783E2,8.0597206E1,1.4097063E2,4.145145E1,3.9145756E1,2.6968943E1,1.14001686E2,1.4499631E1,2.6951818E1,3.1266827E1,7.878928E0,1.2706322E1,1.4262622E1,5.045683E0,1.08956E2,8.411811E0,6.0878196E0,8.483396E0,1.8468422E1,2.9929821E1,1.3370054E0,1.4527645E0,6.426164E0,3.3646064E0,9.341715E0,2.9826813E0,2.0630014E0,5.8693395E0,2.542472E0,1.7164474E0,4.371372E0,1.0639676E0,7.4194283E0,4.020528E0,2.4056358E0,4.3128357E0,5.0288796E0],"tree_param":{"num_deleted":"0","num_feature":"19","num_nodes":"37","size_leaf_vector":"1"}},{"base_weights":[1.357246E-2,1.6550036E-1,-3.5207003E-1,2.609473E-1,-4.4608536E-1,-2.3116717E-1,-4.6635427E-2,3.5240895E-1,-2.5013417E-1,1.257397E-1,-4.2482965E-2,-2.8402966E-1,4.1977897E-2,1.11219004E-1,5.6222266E-1,-3.7438685E-1,5.7721894E-2,5.421572E-2,-2.9401671E-2,-4.5482337E-2,-1.4735729E-1,-1.8478127E-2,4.0768456E-2,6.7177005E-2,8.717715E-3,4.2019024E-2,-3.7558135E-2,-2.412154E-2,1.21065415E-1],"categories":[],"categories_nodes":[],"categories_segments":[],"categories_sizes":[],"default_left":[0,0,0,0,0,0,0,0,0,0,0,0,0,0,0,0,0,0,0,0,0,0,0,0,0,0,0,0,0],"id":11,"left_children":[1,3,5,7,9,11,-1,13,15,17,-1,19,-1,21,23,25,-1,-1,-1,-1,27,-1,-1,-1,-1,-1,-1,-1,-1],"loss_changes":[1.193475E1,8.972694E0,1.6259131E0,6.2521467E0,1.0796266E0,1.8694339E0,0E0,5.6186314E0,2.7573323E0,1.2034584E0,0E0,1.5061369E0,0E0,7.4076066E0,7.428568E0,1.8654299E0,0E0,0E0,0E0,0E0,7.8731136E0,0E0,0E0,0E0,0E0,0E0,0E0,0E0,0E0],"parents":[2147483647,0,0,1,1,2,2,3,3,4,4,5,5,7,7,8,8,9,9,11,11,13,13,14,14,15,15,20,20],"right_children":[2,4,6,8,10,12,-1,14,16,18,-1,20,-1,22,24,26,-1,-1,-1,-1,28,-1,-1,-1,-1,-1,-1,-1,-1],"split_conditions":[2.3407211E0,6.599956E1,3.6168659E0,1.4E1,1.3995128E0,3.5869E0,-4.6635427E-2,5.5056393E1,1.71E2,4E0,-4.2482965E-2,2E0,4.1977897E-2,7E0,7E0,1.7404666E0,5.7721894E-2,5.421572E-2,-2.9401671E-2,-4.5482337E-2,6.626922E1,-1.8478127E-2,4.0768456E-2,6.7177005E-2,8.717715E-3,4.2019024E-2,-3.7558135E-2,-2.412154E-2,1.21065415E-1],"split_indices":[9,0,9,18,17,9,0,0,7,2,0,6,0,12,18,15,0,0,0,0,0,0,0,0,0,0,0,0,0],"split_type":[0,0,0,0,0,0,0,0,0,0,0,0,0,0,0,0,0,0,0,0,0,0,0,0,0,0,0,0,0],"sum_hessian":[2.1279309E2,1.5071638E2,6.2076702E1,1.3086612E2,1.9850254E1,4.205482E1,2.0021883E1,1.1126494E2,1.9601189E1,2.5054574E0,1.7344797E1,3.988944E1,2.1653848E0,5.2473946E1,5.8790993E1,1.7923836E1,1.6773528E0,1.0059222E0,1.4995352E0,1.1918949E1,2.7970488E1,2.8453735E1,2.402021E1,3.5936977E1,2.2854013E1,1.280998E0,1.6642838E1,2.6343437E1,1.6270497E0],"tree_param":{"num_deleted":"0","num_feature":"19","num_nodes":"29","size_leaf_vector":"1"}},{"base_weights":[-2.7925994E-3,-2.5119492E-1,2.028889E-1,-5.101689E-1,-4.086587E-2,-1.2309788E-1,4.9391308E-1,-4.789142E-2,5.982071E-2,3.6765566E-1,-3.7647635E-1,-2.7967983E-1,1.1208003E0,7.163614E-1,-4.5226153E-2,1.1882108E0,3.1627536E-2,-4.7065042E-2,1.4347308E-2,4.2160812E-1,-3.855703E-1,1.3316849E-1,-3.0319955E-2,3.342911E-1,1.1889569E0,9.5713953E-4,1.2000258E-1,6.8559885E-2,-4.515852E-2,9.157805E-2,-2.8162029E-2,-3.5206795E-2,7.6852724E-2,3.2909494E-2,-3.524755E-2,-2.7291868E-2,6.264928E-2,-3.6024287E-2,1.131725E-1],"categories":[],"categories_nodes":[],"categories_segments":[],"categories_sizes":[],"default_left":[0,0,0,0,0,0,0,0,0,0,0,0,0,0,0,0,0,0,0,0,0,0,0,0,0,0,0,0,0,0,0,0,0,0,0,0,0,0,0],"id":12,"left_children":[1,3,5,7,9,11,13,-1,-1,15,17,19,21,23,-1,25,27,-1,29,31,33,-1,-1,35,37,-1,-1,-1,-1,-1,-1,-1,-1,-1,-1,-1,-1,-1,-1],"loss_changes":[1.1149235E1,5.3629236E0,1.1386633E1,5.36796E0,7.765441E0,1.1436784E1,1.53138E1,0E0,0E0,7.0198097E0,2.5777807E0,3.9887576E0,6.001506E0,9.124197E0,0E0,2.6995173E0,9.92365E0,0E0,5.324928E0,3.7843194E0,2.1671453E0,0E0,0E0,9.528562E0,9.214085E0,0E0,0E0,0E0,0E0,0E0,0E0,0E0,0E0,0E0,0E0,0E0,0E0,0E0,0E0],"parents":[2147483647,0,0,1,1,2,2,3,3,4,4,5,5,6,6,9,9,10,10,11,11,12,12,13,13,15,15,16,16,18,18,19,19,20,20,23,23,24,24],"right_children":[2,4,6,8,10,12,14,-1,-1,16,18,20,22,24,-1,26,28,-1,30,32,34,-1,-1,36,38,-1,-1,-1,-1,-1,-1,-1,-1,-1,-1,-1,-1,-1,-1],"split_conditions":[2.3005831E0,3E0,2.4122241E2,6.6055885E1,2E-1,1E0,3.7231052E0,-4.789142E-2,5.982071E-2,1.7165354E0,1E0,2.9561288E0,3E0,2.8434875E2,-4.5226153E-2,5.7004883E1,1.1370934E2,-4.7065042E-2,1.27583694E2,3E0,2E0,1.3316849E-1,-3.0319955E-2,7E0,4E0,9.5713953E-4,1.2000258E-1,6.8559885E-2,-4.515852E-2,9.157805E-2,-2.8162029E-2,-3.5206795E-2,7.6852724E-2,3.2909494E-2,-3.524755E-2,-2.7291868E-2,6.264928E-2,-3.6024287E-2,1.131725E-1],"split_indices":[16,18,4,0,16,5,9,0,0,17,5,16,10,4,0,0,3,0,3,18,10,0,0,18,2,0,0,0,0,0,0,0,0,0,0,0,0,0,0],"split_type":[0,0,0,0,0,0,0,0,0,0,0,0,0,0,0,0,0,0,0,0,0,0,0,0,0,0,0,0,0,0,0,0,0,0,0,0,0,0,0],"sum_hessian":[2.1622229E2,9.7839676E1,1.1838262E2,4.3210217E1,5.4629456E1,5.6109425E1,6.2273193E1,4.0860477E1,2.3497362E0,2.4595331E1,3.0034126E1,5.052455E1,5.584874E0,5.173265E1,1.0540543E1,6.4089985E0,1.8186333E1,1.9149357E1,1.088477E1,6.236973E0,4.428758E1,4.018088E0,1.5667865E0,2.9550152E1,2.2182499E1,1.5605798E0,4.8484187E0,7.4430494E0,1.0743282E1,2.1443307E0,8.740439E0,2.4708385E0,3.766134E0,2.442053E0,4.1845524E1,1.1892684E1,1.7657467E1,2.5641148E0,1.9618385E1],"tree_param":{"num_deleted":"0","num_feature":"19","num_nodes":"39","size_leaf_vector":"1"}},{"base_weights":[4.0045284E-2,-2.9311323E-1,2.6407793E-1,7.157197E-1,-3.7730792E-1,1.998563E-1,1.1926307E-1,-3.0018441E-2,1.0869449E0,-5.343145E-1,-7.341195E-3,3.5065465E-2,4.91149E-1,1.2465102E-1,-2.6809977E-2,-1.2439876E-1,-4.650607E-2,8.050914E-1,-4.6197027E-2,-4.692339E-2,1.9245091E-1,2.4986917E-1,1.2898709E-1,5.55178E-2,-4.082147E-2,-4.0202077E-2,1.4541961E-1,2.8727464E-2,-4.5709565E-2,6.990901E-2,-5.3599635E-3],"categories":[],"categories_nodes":[],"categories_segments":[],"categories_sizes":[],"default_left":[0,0,0,0,0,0,0,0,0,0,0,0,0,0,0,0,0,0,0,0,0,0,0,0,0,0,0,0,0,0,0],"id":13,"left_children":[1,3,5,7,9,11,-1,-1,13,15,17,19,21,-1,-1,23,-1,25,-1,-1,27,29,-1,-1,-1,-1,-1,-1,-1,-1,-1],"loss_changes":[1.626031E1,7.7149673E0,9.956758E0,3.281992E0,4.73332E0,5.9756765E0,0E0,0E0,4.24218E0,1.0307751E0,1.2189131E1,8.01906E0,1.1779229E1,0E0,0E0,2.6156461E0,0E0,1.5288067E1,0E0,0E0,8.509163E0,7.6196604E0,0E0,0E0,0E0,0E0,0E0,0E0,0E0,0E0,0E0],"parents":[2147483647,0,0,1,1,2,2,3,3,4,4,5,5,8,8,9,9,10,10,11,11,12,12,15,15,17,17,20,20,21,21],"right_children":[2,4,6,8,10,12,-1,-1,14,16,18,20,22,-1,-1,24,-1,26,-1,-1,28,30,-1,-1,-1,-1,-1,-1,-1,-1,-1],"split_conditions":[7E0,1.5658414E0,1.02E1,2E0,2E0,2E0,1.1926307E-1,-3.0018441E-2,2.6005133E2,1.9701493E0,7E0,5.0552225E-1,2.8596492E0,1.2465102E-1,-2.6809977E-2,1.1218027E-2,-4.650607E-2,3E0,-4.6197027E-2,-4.692339E-2,6.1034536E0,1E0,1.2898709E-1,5.55178E-2,-4.082147E-2,-4.0202077E-2,1.4541961E-1,2.8727464E-2,-4.5709565E-2,6.990901E-2,-5.3599635E-3],"split_indices":[12,15,16,6,11,11,0,0,4,15,18,9,15,0,0,9,0,14,0,0,16,6,0,0,0,0,0,0,0,0,0],"split_type":[0,0,0,0,0,0,0,0,0,0,0,0,0,0,0,0,0,0,0,0,0,0,0,0,0,0,0,0,0,0,0],"sum_hessian":[2.1581749E2,8.665084E1,1.2916664E2,6.096841E0,8.0554E1,1.238459E2,5.3207483E0,1.5451605E0,4.5516806E0,5.6241848E1,2.4312153E1,7.981381E1,4.403209E1,3.3469942E0,1.2046862E0,6.161634E0,5.008021E1,9.85561E0,1.4456542E1,1.5574428E1,6.423939E1,3.7240746E1,6.7913423E0,1.7184973E0,4.4431367E0,4.5212164E0,5.334393E0,5.3169327E1,1.1070059E1,1.1950139E1,2.5290607E1],"tree_param":{"num_deleted":"0","num_feature":"19","num_nodes":"31","size_leaf_vector":"1"}},{"base_weights":[-1.4770433E-2,-2.817566E-1,5.871286E-1,-4.6745393E-1,6.667765E-1,1.1834803E0,3.0482444E-1,-5.365497E-1,6.0865495E-2,1.299877E0,-4.4964332E-2,-1.9658577E-2,1.4598774E0,-4.1211522E-1,9.3316495E-1,-4.849659E-2,-4.703289E-2,-4.4476993E-2,1.123589E0,-3.5862792E-2,1.3369843E-1,-2.6265947E-2,1.2730217E-1,4.981251E-2,-3.9514367E-2,4.315942E-1,1.3595697E-1,7.381166E-2,-4.447841E-2,1.2372188E-1,-2.6308887E-2,1.0073312E-1,-3.496196E-2],"categories":[],"categories_nodes":[],"categories_segments":[],"categories_sizes":[],"default_left":[0,0,0,0,0,0,0,0,0,0,0,0,0,0,0,0,0,0,0,0,0,0,0,0,0,0,0,0,0,0,0,0,0],"id":14,"left_children":[1,3,5,7,9,11,13,15,17,19,-1,-1,21,23,25,-1,27,-1,29,-1,-1,-1,-1,-1,-1,31,-1,-1,-1,-1,-1,-1,-1],"loss_changes":[3.461168E1,2.6585361E1,1.078241E1,4.60779E0,2.0050276E1,8.622438E0,2.1228527E1,3.7542706E0,1.0715411E1,1.1584927E1,0E0,0E0,4.6751213E0,2.1958842E0,8.861935E0,0E0,7.8682013E0,0E0,4.184765E0,0E0,0E0,0E0,0E0,0E0,0E0,1.2360375E1,0E0,0E0,0E0,0E0,0E0,0E0,0E0],"parents":[2147483647,0,0,1,1,2,2,3,3,4,4,5,5,6,6,7,7,8,8,9,9,12,12,13,13,14,14,16,16,18,18,25,25],"right_children":[2,4,6,8,10,12,14,16,18,20,-1,-1,22,24,26,-1,28,-1,30,-1,-1,-1,-1,-1,-1,32,-1,-1,-1,-1,-1,-1,-1],"split_conditions":[2.3018258E0,3E0,2.6712878E0,3.7704847E0,1.1E0,1.2337854E2,3.5524993E0,1.541148E2,5.91511E1,5.3008213E1,-4.4964332E-2,-1.9658577E-2,1E0,1.273743E0,2.1731217E0,-4.849659E-2,5.7583504E1,-4.4476993E-2,2.1629851E2,-3.5862792E-2,1.3369843E-1,-2.6265947E-2,1.2730217E-1,4.981251E-2,-3.9514367E-2,1.3813504E2,1.3595697E-1,7.381166E-2,-4.447841E-2,1.2372188E-1,-2.6308887E-2,1.0073312E-1,-3.496196E-2],"split_indices":[9,11,9,16,9,7,9,3,0,0,0,0,1,17,17,0,0,0,4,0,0,0,0,0,0,3,0,0,0,0,0,0,0],"split_type":[0,0,0,0,0,0,0,0,0,0,0,0,0,0,0,0,0,0,0,0,0,0,0,0,0,0,0,0,0,0,0,0,0],"sum_hessian":[2.13353E2,1.4816353E2,6.518947E1,1.243302E2,2.3833332E1,1.9919153E1,4.5270313E1,1.0993666E2,1.4393542E1,1.5691279E1,8.142054E0,3.2459145E0,1.6673239E1,2.1305151E1,2.396516E1,9.603291E1,1.390375E1,9.409129E0,4.9844127E0,2.7129207E0,1.2978358E1,1.0387233E0,1.5634516E1,1.0766978E0,2.0228453E1,1.5429309E1,8.535852E0,4.5059247E0,9.397825E0,3.8101716E0,1.1742412E0,7.671106E0,7.7582035E0],"tree_param":{"num_deleted":"0","num_feature":"19","num_nodes":"33","size_leaf_vector":"1"}},{"base_weights":[-2.8952807E-3,6.551505E-1,-3.6338863E-1,1.0151131E0,-1.7957233E-1,1.7370347E-2,-4.464008E-2,1.1656271E0,-2.3082261E-1,4.5014942E-1,-4.1058354E-2,6.751115E-1,-3.9498958E-1,1.473802E0,6.4153993E-1,-4.085382E-2,5.3391088E-2,1.0838411E0,-1.4607757E-1,-1.7241767E-2,8.491743E-1,5.4847133E-1,-4.11456E-2,5.989452E-2,1.3344654E-1,1.096986E-1,1.6703634E-2,5.1724557E-3,1.2020565E-1,-3.7456803E-2,3.792073E-2,-9.667907E-3,8.020187E-2,-2.8732533E-2,9.832764E-2],"categories":[],"categories_nodes":[],"categories_segments":[],"categories_sizes":[],"default_left":[0,0,0,0,0,0,0,0,0,0,0,0,0,0,0,0,0,0,0,0,0,0,0,0,0,0,0,0,0,0,0,0,0,0,0],"id":15,"left_children":[1,3,5,7,9,11,-1,13,15,17,-1,19,21,23,25,-1,-1,27,29,-1,31,33,-1,-1,-1,-1,-1,-1,-1,-1,-1,-1,-1,-1,-1],"loss_changes":[5.175138E1,2.3382744E1,1.0453323E1,1.0414398E1,5.297769E0,1.3459288E1,0E0,6.877075E0,2.016349E0,3.5151367E0,0E0,3.145978E0,3.7190456E0,2.9391937E0,5.936015E0,0E0,0E0,1.791595E0,1.3123398E0,0E0,2.5295162E0,2.8578603E0,0E0,0E0,0E0,0E0,0E0,0E0,0E0,0E0,0E0,0E0,0E0,0E0,0E0],"parents":[2147483647,0,0,1,1,2,2,3,3,4,4,5,5,7,7,8,8,9,9,11,11,12,12,13,13,14,14,17,17,18,18,20,20,21,21],"right_children":[2,4,6,8,10,12,-1,14,16,18,-1,20,22,24,26,-1,-1,28,30,-1,32,34,-1,-1,-1,-1,-1,-1,-1,-1,-1,-1,-1,-1,-1],"split_conditions":[4E0,6E0,1E0,2.6081276E0,2E0,1.5154849E0,-4.464008E-2,5.6072388E1,7.700159E0,1E0,-4.1058354E-2,2.172283E0,1.1536228E2,1.1277091E2,1E0,-4.085382E-2,5.3391088E-2,2E0,3.1666667E0,-1.7241767E-2,4.2E1,4.228167E1,-4.11456E-2,5.989452E-2,1.3344654E-1,1.096986E-1,1.6703634E-2,5.1724557E-3,1.2020565E-1,-3.7456803E-2,3.792073E-2,-9.667907E-3,8.020187E-2,-2.8732533E-2,9.832764E-2],"split_indices":[2,18,11,9,10,16,0,0,16,6,0,15,3,3,1,0,0,2,15,0,0,0,0,0,0,0,0,0,0,0,0,0,0,0,0],"split_type":[0,0,0,0,0,0,0,0,0,0,0,0,0,0,0,0,0,0,0,0,0,0,0,0,0,0,0,0,0,0,0,0,0,0,0],"sum_hessian":[2.1615312E2,7.621416E1,1.3993895E2,5.3099594E1,2.3114567E1,4.7640697E1,9.229826E1,4.743385E1,5.6657453E0,7.88459E0,1.5229977E1,1.8112648E1,2.952805E1,2.8728642E1,1.8705206E1,4.6488023E0,1.0169429E0,3.425748E0,4.458842E0,2.922223E0,1.5190425E1,2.9116282E0,2.661642E1,7.0963187E0,2.1632324E1,6.156107E0,1.2549099E1,1.3337696E0,2.0919785E0,3.095612E0,1.3632298E0,2.102543E0,1.3087881E1,1.4501424E0,1.4614857E0],"tree_param":{"num_deleted":"0","num_feature":"19","num_nodes":"35","size_leaf_vector":"1"}},{"base_weights":[-4.3046694E-2,3.8059898E-2,-4.416891E-2,1.1106704E-1,-3.541036E-1,1.9048087E-1,-2.6374355E-1,-4.5253608E-1,9.4132155E-2,2.9548404E-1,-3.4843642E-1,-4.1631255E-2,1.8954079E-1,-8.3883606E-2,-4.6814848E-2,6.6727954E-3,4.7644455E-2,-4.5912407E-2,2.0112405E-2,-2.4070308E-2,1.0497918E-1,-4.039387E-2,3.5127327E-2],"categories":[],"categories_nodes":[],"categories_segments":[],"categories_sizes":[],"default_left":[0,0,0,0,0,0,0,0,0,0,0,0,0,0,0,0,0,0,0,0,0,0,0],"id":16,"left_children":[1,3,-1,5,7,9,11,13,-1,15,17,-1,19,21,-1,-1,-1,-1,-1,-1,-1,-1,-1],"loss_changes":[8.628529E0,5.214558E0,0E0,4.608759E0,4.8430433E0,7.287064E0,3.2623544E0,1.3006911E0,0E0,6.746379E0,3.0062351E0,0E0,6.2114677E0,2.086984E0,0E0,0E0,0E0,0E0,0E0,0E0,0E0,0E0,0E0],"parents":[2147483647,0,0,1,1,3,3,4,4,5,5,6,6,7,7,9,9,10,10,12,12,13,13],"right_children":[2,4,-1,6,8,10,12,14,-1,16,18,-1,20,22,-1,-1,-1,-1,-1,-1,-1,-1,-1],"split_conditions":[3.1569996E0,1E0,-4.416891E-2,6.5E1,6.9565496E0,4.634288E0,1.892562E0,6E0,9.4132155E-2,5.659429E1,2.7516813E0,-4.1631255E-2,1.6051774E0,2.0014417E0,-4.6814848E-2,6.6727954E-3,4.7644455E-2,-4.5912407E-2,2.0112405E-2,-2.4070308E-2,1.0497918E-1,-4.039387E-2,3.5127327E-2],"split_indices":[9,5,0,0,16,16,17,12,0,0,9,0,9,16,0,0,0,0,0,0,0,0,0],"split_type":[0,0,0,0,0,0,0,0,0,0,0,0,0,0,0,0,0,0,0,0,0,0,0],"sum_hessian":[2.0747243E2,1.797578E2,2.7714624E1,1.5214963E2,2.7608164E1,1.2595453E2,2.6195107E1,2.6601946E1,1.0062195E0,1.0579336E2,2.0161171E1,1.6630795E1,9.564312E0,7.4710813E0,1.9130863E1,6.273423E1,4.3059124E1,1.4684713E1,5.4764576E0,7.166034E0,2.3982778E0,4.158029E0,3.313052E0],"tree_param":{"num_deleted":"0","num_feature":"19","num_nodes":"23","size_leaf_vector":"1"}},{"base_weights":[2.1398102E-4,-2.8300297E-1,1.8692888E-1,-5.385115E-1,-7.8191735E-2,-2.841863E-1,4.4519114E-1,5.2616697E-2,-4.7195982E-2,1.7180155E-1,-4.5770697E-2,-4.1889258E-2,1.2730168E-1,-4.92595E-2,7.391743E-1,7.1432483E-1,-5.9358783E-2,-4.194321E-2,5.332763E-1,7.6554596E-1,-3.1543702E-1,-4.2576037E-2,8.9150697E-1,1.1444528E-1,-3.8684417E-2,4.752814E-2,-3.170792E-2,7.192157E-2,-3.6369737E-2,1.0649133E-1,-3.457225E-2,-3.066862E-2,4.953736E-2,8.683511E-2,-3.0657118E-2],"categories":[],"categories_nodes":[],"categories_segments":[],"categories_sizes":[],"default_left":[0,0,0,0,0,0,0,0,0,0,0,0,0,0,0,0,0,0,0,0,0,0,0,0,0,0,0,0,0,0,0,0,0,0,0],"id":17,"left_children":[1,3,5,7,9,11,13,-1,-1,15,-1,-1,17,19,21,23,25,-1,27,29,31,-1,33,-1,-1,-1,-1,-1,-1,-1,-1,-1,-1,-1,-1],"loss_changes":[1.13548155E1,4.422534E0,1.5871856E1,2.713275E0,6.0903497E0,4.6412654E0,1.2243265E1,0E0,0E0,4.1794324E0,0E0,0E0,5.0103793E0,7.2359257E0,1.0686153E1,9.213867E0,5.532668E0,0E0,4.569051E0,6.1523337E0,1.8255181E0,0E0,1.2148235E1,0E0,0E0,0E0,0E0,0E0,0E0,0E0,0E0,0E0,0E0,0E0,0E0],"parents":[2147483647,0,0,1,1,2,2,3,3,4,4,5,5,6,6,9,9,12,12,13,13,14,14,15,15,16,16,18,18,19,19,20,20,22,22],"right_children":[2,4,6,8,10,12,14,-1,-1,16,-1,-1,18,20,22,24,26,-1,28,30,32,-1,34,-1,-1,-1,-1,-1,-1,-1,-1,-1,-1,-1,-1],"split_conditions":[1.030936E0,1E0,1.6508548E0,9.618424E1,7E-1,2.612021E0,1.2517606E2,5.2616697E-2,-4.7195982E-2,1.7747203E0,-4.5770697E-2,-4.1889258E-2,1.3107475E2,1.4272159E0,2E0,2.7774312E0,1.1370934E2,-4.194321E-2,1.4207389E0,2.672616E0,3.21E2,-4.2576037E-2,3.4782748E0,1.1444528E-1,-3.8684417E-2,4.752814E-2,-3.170792E-2,7.192157E-2,-3.6369737E-2,1.0649133E-1,-3.457225E-2,-3.066862E-2,4.953736E-2,8.683511E-2,-3.0657118E-2],"split_indices":[9,11,17,7,9,9,3,0,0,17,0,0,7,9,10,15,3,0,17,15,4,0,9,0,0,0,0,0,0,0,0,0,0,0,0],"split_type":[0,0,0,0,0,0,0,0,0,0,0,0,0,0,0,0,0,0,0,0,0,0,0,0,0,0,0,0,0,0,0,0,0,0,0],"sum_hessian":[2.1272424E2,8.431541E1,1.2840883E2,3.6789734E1,4.7525677E1,4.5432213E1,8.2976616E1,1.0308342E0,3.57589E1,3.1988087E1,1.5537588E1,2.854845E1,1.6883762E1,3.1249863E1,5.172675E1,8.932867E0,2.3055222E1,6.3694E0,1.0514363E1,7.2329006E0,2.4016962E1,5.267802E0,4.645895E1,5.468733E0,3.464134E0,7.5847E0,1.547052E1,7.739123E0,2.7752404E0,4.8371925E0,2.395708E0,2.2939783E1,1.0771798E0,4.0453045E1,6.005904E0],"tree_param":{"num_deleted":"0","num_feature":"19","num_nodes":"35","size_leaf_vector":"1"}},{"base_weights":[2.2156522E-2,-3.2030407E-1,2.5849757E-1,4.137953E-1,-4.475076E-1,6.6520303E-1,8.5620165E-2,7.625806E-1,-3.7896913E-2,-4.7603577E-2,-8.650744E-2,-2.22972E-1,1.1237649E0,-2.6132834E-1,6.188046E-1,1.7740624E-1,1.18691616E-1,-4.4929862E-2,4.1493246E-1,1.1779848E-1,-4.5770306E-2,4.0659875E-1,1.3339102E0,-3.1904197E-1,6.158148E-2,7.7869016E-1,-3.9702363E-2,8.077095E-2,-3.8775392E-2,1.06008984E-1,-4.156791E-2,-3.7192103E-2,8.194824E-2,1.2003313E-1,2.3451263E-2,-3.0244686E-2,4.4641603E-2,1.2720078E-1,4.3212388E-2],"categories":[],"categories_nodes":[],"categories_segments":[],"categories_sizes":[],"default_left":[0,0,0,0,0,0,0,0,0,0,0,0,0,0,0,0,0,0,0,0,0,0,0,0,0,0,0,0,0,0,0,0,0,0,0,0,0,0,0],"id":18,"left_children":[1,3,5,7,9,11,13,15,-1,-1,17,19,21,23,25,27,-1,-1,29,-1,-1,31,33,35,-1,37,-1,-1,-1,-1,-1,-1,-1,-1,-1,-1,-1,-1,-1],"loss_changes":[1.7832458E1,8.588756E0,9.104989E0,4.636256E0,4.0593567E0,1.6020683E1,1.7289194E1,4.081759E0,0E0,0E0,5.8466015E0,9.141181E0,3.3311043E0,3.6252108E0,6.9464445E0,4.247386E0,0E0,0E0,1.0928593E1,0E0,0E0,4.3863826E0,2.9287415E0,3.031385E0,0E0,5.4443417E0,0E0,0E0,0E0,0E0,0E0,0E0,0E0,0E0,0E0,0E0,0E0,0E0,0E0],"parents":[2147483647,0,0,1,1,2,2,3,3,4,4,5,5,6,6,7,7,10,10,11,11,12,12,13,13,14,14,15,15,18,18,21,21,22,22,23,23,25,25],"right_children":[2,4,6,8,10,12,14,16,-1,-1,18,20,22,24,26,28,-1,-1,30,-1,-1,32,34,36,-1,38,-1,-1,-1,-1,-1,-1,-1,-1,-1,-1,-1,-1,-1],"split_conditions":[7E0,1.1614378E2,1.27209404E2,6.433557E1,2E0,1E0,2E0,6.8E1,-3.7896913E-2,-4.7603577E-2,2.576169E2,3E0,1.09238106E2,3.42E2,3.35E2,1.2450027E2,1.18691616E-1,-4.4929862E-2,3E0,1.1779848E-1,-4.5770306E-2,1.8182979E0,6.568654E1,1.7220316E2,6.158148E-2,1E0,-3.9702363E-2,8.077095E-2,-3.8775392E-2,1.06008984E-1,-4.156791E-2,-3.7192103E-2,8.194824E-2,1.2003313E-1,2.3451263E-2,-3.0244686E-2,4.4641603E-2,1.2720078E-1,4.3212388E-2],"split_indices":[12,7,7,0,11,8,11,13,0,0,4,2,7,4,4,3,0,0,11,0,0,9,0,3,0,1,0,0,0,0,0,0,0,0,0,0,0,0,0],"split_type":[0,0,0,0,0,0,0,0,0,0,0,0,0,0,0,0,0,0,0,0,0,0,0,0,0,0,0,0,0,0,0,0,0,0,0,0,0,0,0],"sum_hessian":[2.1830083E2,8.8993324E1,1.293075E2,1.2810446E1,7.6182884E1,3.7720264E1,9.1587234E1,9.297385E0,3.51306E0,5.362043E1,2.2562449E1,1.3018627E1,2.4701637E1,5.5792416E1,3.579482E1,5.8201346E0,3.4772503E0,1.1523693E1,1.1038755E1,1.6737757E0,1.13448515E1,6.2629213E0,1.8438717E1,5.348905E1,2.3033648E0,3.156987E1,4.2249475E0,2.3461797E0,3.4739552E0,5.3805075E0,5.6582484E0,2.7005455E0,3.5623758E0,1.551497E1,2.9237468E0,5.0649826E1,2.839227E0,5.885625E0,2.5684246E1],"tree_param":{"num_deleted":"0","num_feature":"19","num_nodes":"39","size_leaf_vector":"1"}},{"base_weights":[-3.4534115E-2,-2.1441963E-1,7.97083E-1,-5.124917E-1,2.8023106E-1,-4.112396E-2,1.0272915E0,-4.774027E-2,-3.1093633E-1,-3.9314635E-2,4.7023237E-1,-3.3804882E-2,1.144329E0,-4.6352196E-2,1.22496665E-1,9.226204E-1,4.965191E-3,-1.2214367E-2,1.2593813E0,7.092373E-2,-4.3897185E-2,-3.9291974E-2,9.3512036E-2,1.0150097E-1,-2.0838398E-2,1.0844318E-1,-2.776818E-2],"categories":[],"categories_nodes":[],"categories_segments":[],"categories_sizes":[],"default_left":[0,0,0,0,0,0,0,0,0,0,0,0,0,0,0,0,0,0,0,0,0,0,0,0,0,0,0],"id":19,"left_children":[1,3,5,7,9,-1,11,-1,13,-1,15,-1,17,-1,19,21,23,-1,25,-1,-1,-1,-1,-1,-1,-1,-1],"loss_changes":[3.1847998E1,2.5928387E1,1.195846E1,1.6737461E0,9.967011E0,0E0,6.006382E0,0E0,4.0695205E0,0E0,1.1318258E1,0E0,4.7265663E0,0E0,7.6502113E0,1.0068928E1,9.564401E0,0E0,4.798668E0,0E0,0E0,0E0,0E0,0E0,0E0,0E0,0E0],"parents":[2147483647,0,0,1,1,2,2,3,3,4,4,6,6,8,8,10,10,12,12,14,14,15,15,16,16,18,18],"right_children":[2,4,6,8,10,-1,12,-1,14,-1,16,-1,18,-1,20,22,24,-1,26,-1,-1,-1,-1,-1,-1,-1,-1],"split_conditions":[3E0,3.7704847E0,1E0,8E0,1.2063795E2,-4.112396E-2,4E0,-4.774027E-2,7E0,-3.9314635E-2,2.6712878E0,-3.3804882E-2,1.1061306E2,-4.6352196E-2,5.7583504E1,1E0,4E1,-1.2214367E-2,5.623518E0,7.092373E-2,-4.3897185E-2,-3.9291974E-2,9.3512036E-2,1.0150097E-1,-2.0838398E-2,1.0844318E-1,-2.776818E-2],"split_indices":[11,16,6,14,7,0,2,0,18,0,9,0,7,0,0,1,0,0,9,0,0,0,0,0,0,0,0],"split_type":[0,0,0,0,0,0,0,0,0,0,0,0,0,0,0,0,0,0,0,0,0,0,0,0,0,0,0],"sum_hessian":[2.1075107E2,1.738813E2,3.6869766E1,1.084776E2,6.54037E1,5.32257E0,3.1547197E1,7.511464E1,3.3362957E1,1.2608709E1,5.279499E1,2.1614013E0,2.9385796E1,2.0394152E1,1.2968806E1,2.6269588E1,2.6525404E1,2.3676567E0,2.7018139E1,5.914934E0,7.0538726E0,3.7497709E0,2.2519817E1,3.9481797E0,2.2577223E1,2.5639645E1,1.3784943E0],"tree_param":{"num_deleted":"0","num_feature":"19","num_nodes":"27","size_leaf_vector":"1"}},{"base_weights":[-1.8956034E-3,6.060803E-1,-3.9349192E-1,8.1041135E-2,1.1742767E0,1.6342372E-2,-4.013046E-2,4.60082E-1,-3.9182258E-1,1.3517804E0,4.953157E-1,5.0363696E-1,-3.886251E-1,8.685974E-1,-8.561509E-2,4.7922987E-2,-4.494359E-2,1.10993296E-1,1.2509991E-2,-3.6327384E-2,9.19659E-1,9.288137E-1,-8.7486416E-2,2.4929574E-2,-3.992084E-2,1.1803055E-1,3.3849858E-2,3.6143698E-2,-3.3781286E-2,-2.6859736E-2,7.872498E-2,1.1156588E-1,-1.0774679E-2,1.1783886E-1,-1.4343603E-2,7.884989E-2,-4.118713E-2],"categories":[],"categories_nodes":[],"categories_segments":[],"categories_sizes":[],"default_left":[0,0,0,0,0,0,0,0,0,0,0,0,0,0,0,0,0,0,0,0,0,0,0,0,0,0,0,0,0,0,0,0,0,0,0,0,0],"id":20,"left_children":[1,3,5,7,9,11,-1,13,15,17,19,21,23,25,27,29,-1,-1,-1,-1,31,33,35,-1,-1,-1,-1,-1,-1,-1,-1,-1,-1,-1,-1,-1,-1],"loss_changes":[5.1772247E1,2.5320004E1,5.869913E0,8.308937E0,4.252491E0,5.8358874E0,0E0,5.788699E0,1.5755348E0,1.1376114E0,4.4635324E0,3.4510086E0,1.4056685E0,3.362483E0,2.3409002E0,2.7358186E0,0E0,0E0,0E0,0E0,3.8286147E0,5.0184646E0,3.4988956E0,0E0,0E0,0E0,0E0,0E0,0E0,0E0,0E0,0E0,0E0,0E0,0E0,0E0,0E0],"parents":[2147483647,0,0,1,1,2,2,3,3,4,4,5,5,7,7,8,8,9,9,10,10,11,11,12,12,13,13,14,14,15,15,20,20,21,21,22,22],"right_children":[2,4,6,8,10,12,-1,14,16,18,20,22,24,26,28,30,-1,-1,-1,-1,32,34,36,-1,-1,-1,-1,-1,-1,-1,-1,-1,-1,-1,-1,-1,-1],"split_conditions":[6E0,2.7307692E0,6.0082006E-1,1E0,1E0,1E0,-4.013046E-2,1E0,6E0,3.0183825E0,1.1780305E2,2.400608E2,1.08396484E2,2.6435745E2,6.0082006E-1,1E0,-4.494359E-2,1.10993296E-1,1.2509991E-2,-3.6327384E-2,5.415435E1,3.3425117E0,1.2003097E2,2.4929574E-2,-3.992084E-2,1.1803055E-1,3.3849858E-2,3.6143698E-2,-3.3781286E-2,-2.6859736E-2,7.872498E-2,1.1156588E-1,-1.0774679E-2,1.1783886E-1,-1.4343603E-2,7.884989E-2,-4.118713E-2],"split_indices":[12,15,9,8,11,11,0,1,14,9,3,4,3,4,9,1,0,0,0,0,0,15,3,0,0,0,0,0,0,0,0,0,0,0,0,0,0],"split_type":[0,0,0,0,0,0,0,0,0,0,0,0,0,0,0,0,0,0,0,0,0,0,0,0,0,0,0,0,0,0,0,0,0,0,0,0,0],"sum_hessian":[2.1545465E2,8.419279E1,1.3126187E2,4.435209E1,3.98407E1,2.758116E1,1.0368071E2,2.4633362E1,1.9718725E1,3.0798069E1,9.042626E0,1.2407569E1,1.5173591E1,1.3748985E1,1.0884377E1,5.6972027E0,1.40215225E1,2.9750565E1,1.0475051E0,2.7715564E0,6.2710705E0,6.8844953E0,5.523073E0,1.8179793E0,1.3355611E1,4.84188E0,8.907105E0,4.0604553E0,6.8239217E0,4.4959292E0,1.2012734E0,4.101093E0,2.1699777E0,4.3962817E0,2.4882135E0,1.2009825E0,4.322091E0],"tree_param":{"num_deleted":"0","num_feature":"19","num_nodes":"37","size_leaf_vector":"1"}},{"base_weights":[-2.1548208E-2,9.3027174E-2,-3.8883784E-1,2.1081117E-1,-2.7906525E-1,2.4606203E-1,-4.540956E-2,-5.8547832E-2,3.183982E-1,-5.014623E-1,3.0150874E-2,-3.371179E-2,1.1754776E-1,3.34378E-1,-1.9277357E-1,8.566837E-1,1.938048E-1,-4.6520885E-2,3.041215E-2,1.1427373E0,-3.527812E-1,4.6319414E-2,-3.3893216E-2,-4.5141894E-2,-1.3710569E-3,-3.223318E-2,8.180918E-2,-9.854044E-3,3.5545167E-2,8.175862E-3,1.17717095E-1,3.5091147E-2,-4.4217795E-2],"categories":[],"categories_nodes":[],"categories_segments":[],"categories_sizes":[],"default_left":[0,0,0,0,0,0,0,0,0,0,0,0,0,0,0,0,0,0,0,0,0,0,0,0,0,0,0,0,0,0,0,0,0],"id":21,"left_children":[1,3,5,7,9,11,-1,13,15,17,19,-1,-1,21,23,25,27,-1,-1,29,31,-1,-1,-1,-1,-1,-1,-1,-1,-1,-1,-1,-1],"loss_changes":[9.309354E0,7.4554043E0,6.1089244E0,3.7500682E0,2.8352277E0,1.0623129E1,0E0,2.0472622E0,6.015216E0,1.9084158E0,8.114111E0,0E0,0E0,2.0881553E0,1.8601506E0,3.971591E0,6.1003246E0,0E0,0E0,1.5154791E0,2.4939735E0,0E0,0E0,0E0,0E0,0E0,0E0,0E0,0E0,0E0,0E0,0E0,0E0],"parents":[2147483647,0,0,1,1,2,2,3,3,4,4,5,5,7,7,8,8,9,9,10,10,13,13,14,14,15,15,16,16,19,19,20,20],"right_children":[2,4,6,8,10,12,-1,14,16,18,20,-1,-1,22,24,26,28,-1,-1,30,32,-1,-1,-1,-1,-1,-1,-1,-1,-1,-1,-1,-1],"split_conditions":[1.2E1,4.6869426E0,1.2359584E2,1.20613205E2,1.3927281E2,2E0,-4.540956E-2,1.9828664E2,1.2682265E2,2.4351017E0,1.5364238E0,-3.371179E-2,1.1754776E-1,1.6E0,1.9602212E0,1.05E2,1.3859802E2,-4.6520885E-2,3.041215E-2,1.347395E2,1.4190686E2,4.6319414E-2,-3.3893216E-2,-4.5141894E-2,-1.3710569E-3,-3.223318E-2,8.180918E-2,-9.854044E-3,3.5545167E-2,8.175862E-3,1.17717095E-1,3.5091147E-2,-4.4217795E-2],"split_indices":[18,16,3,3,7,6,0,4,3,17,17,0,0,9,17,7,3,0,0,3,7,0,0,0,0,0,0,0,0,0,0,0,0],"split_type":[0,0,0,0,0,0,0,0,0,0,0,0,0,0,0,0,0,0,0,0,0,0,0,0,0,0,0,0,0,0,0,0,0],"sum_hessian":[2.1935796E2,1.6776932E2,5.1588634E1,1.2776074E2,4.000858E1,1.1252339E1,4.0336296E1,3.6595264E1,9.116548E1,2.2909613E1,1.7098967E1,7.704217E0,3.5481224E0,8.938366E0,2.7656897E1,1.6030874E1,7.5134605E1,2.1314684E1,1.5949285E0,3.8701878E0,1.3228779E1,6.9362826E0,2.0020838E0,8.167795E0,1.9489101E1,1.6997448E0,1.4331129E1,3.339139E1,4.174321E1,1.2438475E0,2.6263404E0,2.4272475E0,1.0801532E1],"tree_param":{"num_deleted":"0","num_feature":"19","num_nodes":"33","size_leaf_vector":"1"}},{"base_weights":[-4.8850304E-3,1.3514343E-1,-3.7120417E-1,-1.963634E-1,3.485383E-1,-4.713382E-2,2.4830837E-2,1.4974657E-1,-4.1693786E-1,-6.463193E-2,5.4297686E-1,9.109886E-2,-2.2114766E-1,-2.5358728E-1,5.4017234E-1,-4.433647E-2,1.02206804E-1,1.7523712E-1,-4.3603238E-2,-1.2818538E-3,8.54266E-1,-3.7566468E-2,1.2768398E-1,4.5260504E-2,-4.3481614E-2,-2.073087E-2,6.610079E-2,-4.0366072E-2,6.3656E-2,-3.0921675E-2,3.4229208E-2,-3.0627307E-2,4.2803142E-2,7.807406E-2,-3.698489E-2,1.0956639E-1,-4.170876E-2],"categories":[],"categories_nodes":[],"categories_segments":[],"categories_sizes":[],"default_left":[0,0,0,0,0,0,0,0,0,0,0,0,0,0,0,0,0,0,0,0,0,0,0,0,0,0,0,0,0,0,0,0,0,0,0,0,0],"id":22,"left_children":[1,3,5,7,9,-1,11,13,15,17,19,-1,21,23,25,-1,27,29,-1,31,33,-1,35,-1,-1,-1,-1,-1,-1,-1,-1,-1,-1,-1,-1,-1,-1],"loss_changes":[1.1124161E1,1.1169117E1,5.1914196E0,4.802728E0,7.7333965E0,0E0,6.3478723E0,4.0587015E0,2.7779799E0,3.732166E0,1.1058832E1,0E0,1.7118627E0,3.3791192E0,3.1809285E0,0E0,4.1171803E0,3.2599294E0,0E0,5.2688046E0,7.1018753E0,0E0,7.7386584E0,0E0,0E0,0E0,0E0,0E0,0E0,0E0,0E0,0E0,0E0,0E0,0E0,0E0,0E0],"parents":[2147483647,0,0,1,1,2,2,3,3,4,4,6,6,7,7,8,8,9,9,10,10,12,12,13,13,14,14,16,16,17,17,19,19,20,20,22,22],"right_children":[2,4,6,8,10,-1,12,14,16,18,20,-1,22,24,26,-1,28,30,-1,32,34,-1,36,-1,-1,-1,-1,-1,-1,-1,-1,-1,-1,-1,-1,-1,-1],"split_conditions":[1.5685982E2,1.6959226E0,7E0,1E0,1.0045242E0,-4.713382E-2,2.05E2,1E0,1.4099539E2,1.3559467E2,1.2517606E2,9.109886E-2,1.0454966E0,4.5621304E1,1.1227615E2,-4.433647E-2,1E0,1E0,-4.3603238E-2,1.3901361E2,3.6663525E0,-3.7566468E-2,1.4272159E0,4.5260504E-2,-4.3481614E-2,-2.073087E-2,6.610079E-2,-4.0366072E-2,6.3656E-2,-3.0921675E-2,3.4229208E-2,-3.0627307E-2,4.2803142E-2,7.807406E-2,-3.698489E-2,1.0956639E-1,-4.170876E-2],"split_indices":[7,17,18,6,9,0,4,11,7,3,3,0,9,0,7,0,11,11,0,7,9,0,9,0,0,0,0,0,0,0,0,0,0,0,0,0,0],"split_type":[0,0,0,0,0,0,0,0,0,0,0,0,0,0,0,0,0,0,0,0,0,0,0,0,0,0,0,0,0,0,0,0,0,0,0,0,0],"sum_hessian":[2.1488797E2,1.5591809E2,5.8969875E1,6.1092033E1,9.482606E1,3.7721275E1,2.1248602E1,2.3904255E1,3.718778E1,3.0558556E1,6.42675E1,3.1869953E0,1.8061607E1,1.1930155E1,1.19741E1,2.9357712E1,7.830065E0,2.0805538E1,9.753017E0,2.3745934E1,4.052157E1,1.0346684E1,7.7149224E0,2.869547E0,9.060608E0,3.180953E0,8.793147E0,4.3214016E0,3.5086634E0,6.289607E0,1.451593E1,1.404205E1,9.703882E0,3.7330723E1,3.1908455E0,2.2670126E0,5.44791E0],"tree_param":{"num_deleted":"0","num_feature":"19","num_nodes":"37","size_leaf_vector":"1"}},{"base_weights":[-1.9556371E-2,-3.1893522E-1,1.7679788E-1,-4.26866E-2,7.2161867E-3,-9.4507925E-2,3.795351E-1,-1.6821155E-1,1.03571504E-1,-3.3615592E-1,2.4399169E-1,2.8793207E-1,1.1084999E-1,3.8083678E-1,-3.5605337E-2,-5.262001E-1,5.31939E-1,-4.118857E-1,8.548628E-1,6.475843E-1,-3.5581317E-2,8.0745265E-2,-3.961585E-2,4.134427E-2,-4.7650564E-2,-3.3848885E-2,8.784381E-2,-4.4821095E-2,4.480129E-2,1.2407886E-1,-4.0416177E-2,7.244721E-2,-4.2265575E-2,-3.5949625E-2,3.4889933E-2],"categories":[],"categories_nodes":[],"categories_segments":[],"categories_sizes":[],"default_left":[0,0,0,0,0,0,0,0,0,0,0,0,0,0,0,0,0,0,0,0,0,0,0,0,0,0,0,0,0,0,0,0,0,0,0],"id":23,"left_children":[1,3,5,-1,7,9,11,13,-1,15,17,19,-1,21,-1,23,25,27,29,31,33,-1,-1,-1,-1,-1,-1,-1,-1,-1,-1,-1,-1,-1,-1],"loss_changes":[1.2808638E1,6.0441904E0,7.2772055E0,0E0,8.175028E0,4.7530785E0,6.5634785E0,5.017345E0,0E0,5.84616E0,1.0114215E1,8.226407E0,0E0,6.682517E0,0E0,2.3487525E0,4.009725E0,2.1055017E0,1.3035396E1,1.0623666E1,7.6257563E0,0E0,0E0,0E0,0E0,0E0,0E0,0E0,0E0,0E0,0E0,0E0,0E0,0E0,0E0],"parents":[2147483647,0,0,1,1,2,2,4,4,5,5,6,6,7,7,9,9,10,10,11,11,13,13,15,15,16,16,17,17,18,18,19,19,20,20],"right_children":[2,4,6,-1,8,10,12,14,-1,16,18,20,-1,22,-1,24,26,28,30,32,34,-1,-1,-1,-1,-1,-1,-1,-1,-1,-1,-1,-1,-1,-1],"split_conditions":[7E0,8E0,1E0,-4.26866E-2,3E0,2E0,1.7E2,1.9701493E0,1.03571504E-1,2.7200766E2,2.344104E0,5.595539E1,1.1084999E-1,1.030936E0,-3.5605337E-2,3.90857E1,1.0110445E0,4.0904365E0,2.759719E2,3.319149E0,2.576169E2,8.0745265E-2,-3.961585E-2,4.134427E-2,-4.7650564E-2,-3.3848885E-2,8.784381E-2,-4.4821095E-2,4.480129E-2,1.2407886E-1,-4.0416177E-2,7.244721E-2,-4.2265575E-2,-3.5949625E-2,3.4889933E-2],"split_indices":[12,14,8,0,10,11,3,15,0,4,15,0,0,9,0,0,16,9,4,15,4,0,0,0,0,0,0,0,0,0,0,0,0,0,0],"split_type":[0,0,0,0,0,0,0,0,0,0,0,0,0,0,0,0,0,0,0,0,0,0,0,0,0,0,0,0,0,0,0,0,0,0,0],"sum_hessian":[2.159329E2,8.52813E1,1.3065161E2,5.1048912E1,3.423239E1,5.610498E1,7.454663E1,3.0892286E1,3.340108E0,3.2739697E1,2.3365282E1,6.950453E1,5.0420995E0,1.0229654E1,2.066263E1,2.7182684E1,5.557014E0,1.1424652E1,1.194063E1,3.2439533E1,3.7064995E1,5.8678446E0,4.36181E0,1.294436E0,2.5888248E1,2.1620831E0,3.394931E0,1.0278931E1,1.1457214E0,7.8052745E0,4.135355E0,2.679115E1,5.648386E0,1.9769854E1,1.7295141E1],"tree_param":{"num_deleted":"0","num_feature":"19","num_nodes":"35","size_leaf_vector":"1"}},{"base_weights":[-2.1722503E-2,-2.644321E-1,4.8866582E-1,-4.7475614E-2,2.2950098E-1,-3.6301907E-2,6.474304E-1,-2.3521775E-1,8.554409E-1,7.859601E-1,-4.172779E-2,-4.188958E-2,9.870097E-1,-3.8080417E-2,1.1078464E0,1.0933517E0,3.2569245E-1,-2.5286721E-2,1.0336625E-1,-1.4971424E-2,1.0404542E-1,2.1852955E-2,1.0589251E-1,-3.327105E-2,9.5714666E-2],"categories":[],"categories_nodes":[],"categories_segments":[],"categories_sizes":[],"default_left":[0,0,0,0,0,0,0,0,0,0,0,0,0,0,0,0,0,0,0,0,0,0,0,0,0],"id":24,"left_children":[1,3,5,-1,7,-1,9,11,13,15,-1,-1,17,-1,19,21,23,-1,-1,-1,-1,-1,-1,-1,-1],"loss_changes":[2.6403563E1,2.3601746E1,1.0574234E1,0E0,1.7203426E1,0E0,9.999344E0,1.2617627E1,8.96945E0,7.190483E0,0E0,0E0,3.151618E0,0E0,5.5886745E0,5.599251E0,1.5208982E1,0E0,0E0,0E0,0E0,0E0,0E0,0E0,0E0],"parents":[2147483647,0,0,1,1,2,2,4,4,6,6,7,7,8,8,9,9,12,12,14,14,15,15,16,16],"right_children":[2,4,6,-1,8,-1,10,12,14,16,-1,-1,18,-1,20,22,24,-1,-1,-1,-1,-1,-1,-1,-1],"split_conditions":[4.434125E0,8E0,1.2E2,-4.7475614E-2,1.4182039E2,-3.6301907E-2,1E0,6.6055885E1,1.4E0,2.46E2,-4.172779E-2,-4.188958E-2,1.1346469E2,-3.8080417E-2,1.1061306E2,7E0,3E0,-2.5286721E-2,1.0336625E-1,-1.4971424E-2,1.0404542E-1,2.1852955E-2,1.0589251E-1,-3.327105E-2,9.5714666E-2],"split_indices":[16,14,7,0,3,0,5,0,16,4,0,0,3,0,7,12,11,0,0,0,0,0,0,0,0],"split_type":[0,0,0,0,0,0,0,0,0,0,0,0,0,0,0,0,0,0,0,0,0,0,0,0,0],"sum_hessian":[2.1110173E2,1.4339412E2,6.770761E1,8.594437E1,5.7449745E1,9.4937525E0,5.8213856E1,3.332923E1,2.4120518E1,5.2339333E1,5.8745255E0,2.7428637E1,5.9005933E0,3.7027144E0,2.0417803E1,3.0556547E1,2.1782784E1,1.1124928E0,4.7881002E0,2.6487176E0,1.7769085E1,7.1783195E0,2.337823E1,1.2045993E1,9.736791E0],"tree_param":{"num_deleted":"0","num_feature":"19","num_nodes":"25","size_leaf_vector":"1"}},{"base_weights":[2.23615E-3,6.0253906E-1,-3.6765322E-1,8.8866E-1,-2.2463022E-1,-5.4227106E-2,-4.267798E-2,9.8079115E-1,-1.3127404E-2,2.519638E-1,-3.92205E-2,5.310245E-1,-4.4925773E-1,1.0542479E-1,7.5874096E-1,8.5459507E-1,-2.4824964E-2,-3.4881245E-2,6.941858E-1,7.714665E-2,-4.579629E-2,1.766559E-2,8.478223E-2,3.787288E-3,9.6725985E-2,8.142387E-2,1.943142E-2,-3.7792053E-2,5.61717E-2],"categories":[],"categories_nodes":[],"categories_segments":[],"categories_sizes":[],"default_left":[0,0,0,0,0,0,0,0,0,0,0,0,0,0,0,0,0,0,0,0,0,0,0,0,0,0,0,0,0],"id":25,"left_children":[1,3,5,7,9,11,-1,13,-1,15,-1,17,19,-1,21,23,-1,-1,25,27,-1,-1,-1,-1,-1,-1,-1,-1,-1],"loss_changes":[4.775441E1,1.960498E1,6.8873444E0,6.0892754E0,2.8922863E0,1.1141035E1,0E0,3.216854E0,0E0,3.1412E0,0E0,3.3734074E0,1.9051156E0,0E0,5.6481285E0,1.1913154E0,0E0,0E0,2.241067E0,2.5035655E0,0E0,0E0,0E0,0E0,0E0,0E0,0E0,0E0,0E0],"parents":[2147483647,0,0,1,1,2,2,3,3,4,4,5,5,7,7,9,9,11,11,12,12,14,14,15,15,18,18,19,19],"right_children":[2,4,6,8,10,12,-1,14,-1,16,-1,18,20,-1,22,24,-1,-1,26,28,-1,-1,-1,-1,-1,-1,-1,-1,-1],"split_conditions":[4E0,6E0,1E0,2.6081276E0,2E0,7E0,-4.267798E-2,1E0,-1.3127404E-2,3E0,-3.92205E-2,1.2E2,5.0552225E-1,1.0542479E-1,2.7457628E0,1.602266E0,-2.4824964E-2,-3.4881245E-2,1E0,3.8E1,-4.579629E-2,1.766559E-2,8.478223E-2,3.787288E-3,9.6725985E-2,8.142387E-2,1.943142E-2,-3.7792053E-2,5.61717E-2],"split_indices":[2,18,11,9,10,12,0,1,0,14,0,7,9,0,15,17,0,0,8,13,0,0,0,0,0,0,0,0,0],"split_type":[0,0,0,0,0,0,0,0,0,0,0,0,0,0,0,0,0,0,0,0,0,0,0,0,0,0,0,0,0],"sum_hessian":[2.1306805E2,8.099318E1,1.3207487E2,6.012231E1,2.0870869E1,4.6157574E1,8.5917305E1,5.5347E1,4.775313E0,7.487683E0,1.3383185E1,1.8461683E1,2.7695889E1,2.0022669E1,3.532433E1,3.363207E0,4.1244755E0,2.4237957E0,1.6037888E1,5.323379E0,2.2372509E1,1.3297192E1,2.202714E1,1.3720958E0,1.9911114E0,8.609154E0,7.428734E0,2.9625967E0,2.3607824E0],"tree_param":{"num_deleted":"0","num_feature":"19","num_nodes":"29","size_leaf_vector":"1"}},{"base_weights":[6.4210044E-3,1.292595E-1,-3.549159E-1,2.566358E-1,-2.67059E-1,-4.2368335E-1,1.3108116E-1,3.092169E-1,-3.5919523E-1,5.077345E-1,-4.145732E-2,-1.3068278E-1,-4.212114E-2,1.0342939E-1,-3.924024E-2,8.550193E-2,5.242753E-1,3.9143343E-2,-4.3707628E-2,-1.3058649E-1,1.024017E0,-3.6910977E-2,8.049475E-2,-2.2856407E-2,3.6398206E-2,-7.448688E-3,5.1499836E-2,-3.6376767E-2,3.946122E-2,1.1201554E-1,9.718559E-4],"categories":[],"categories_nodes":[],"categories_segments":[],"categories_sizes":[],"default_left":[0,0,0,0,0,0,0,0,0,0,0,0,0,0,0,0,0,0,0,0,0,0,0,0,0,0,0,0,0,0,0],"id":26,"left_children":[1,3,5,7,9,11,13,15,17,19,-1,21,-1,-1,-1,23,25,-1,-1,27,29,-1,-1,-1,-1,-1,-1,-1,-1,-1,-1],"loss_changes":[9.5056E0,8.134777E0,1.871551E0,4.0431595E0,7.921245E0,1.3725452E0,6.049779E0,5.3637342E0,1.8576688E0,3.4751308E0,0E0,5.6367407E0,0E0,0E0,0E0,7.8508506E0,4.2733116E0,0E0,0E0,1.3203737E0,2.1597056E0,0E0,0E0,0E0,0E0,0E0,0E0,0E0,0E0,0E0,0E0],"parents":[2147483647,0,0,1,1,2,2,3,3,4,4,5,5,6,6,7,7,8,8,9,9,11,11,15,15,16,16,19,19,20,20],"right_children":[2,4,6,8,10,12,14,16,18,20,-1,22,-1,-1,-1,24,26,-1,-1,28,30,-1,-1,-1,-1,-1,-1,-1,-1,-1,-1],"split_conditions":[4.6869426E0,9E0,6.61126E1,6.599956E1,1.2501071E2,1.5364238E0,1.3007912E2,5.5056393E1,1.3995128E0,1E0,-4.145732E-2,1.4601016E2,-4.212114E-2,1.0342939E-1,-3.924024E-2,7E0,1.21209656E2,3.9143343E-2,-4.3707628E-2,2.5450078E2,1E0,-3.6910977E-2,8.049475E-2,-2.2856407E-2,3.6398206E-2,-7.448688E-3,5.1499836E-2,-3.6376767E-2,3.946122E-2,1.1201554E-1,9.718559E-4],"split_indices":[16,18,0,0,3,17,3,0,17,6,0,7,0,0,0,12,3,0,0,4,8,0,0,0,0,0,0,0,0,0,0],"split_type":[0,0,0,0,0,0,0,0,0,0,0,0,0,0,0,0,0,0,0,0,0,0,0,0,0,0,0,0,0,0,0],"sum_hessian":[2.1212369E2,1.5878583E2,5.3337852E1,1.2043169E2,3.8354145E1,4.6838528E1,6.499326E0,1.1141656E2,9.015124E0,9.139185E0,2.921496E1,1.2757856E1,3.408067E1,1.8888927E0,4.6104336E0,5.5294216E1,5.6122345E1,1.3373797E0,7.677745E0,4.4206495E0,4.718536E0,1.0343256E1,2.4146008E0,2.769558E1,2.7598635E1,9.135361E0,4.6986984E1,3.0876055E0,1.3330443E0,3.1599913E0,1.5585445E0],"tree_param":{"num_deleted":"0","num_feature":"19","num_nodes":"31","size_leaf_vector":"1"}},{"base_weights":[1.49633E-2,-2.4901685E-1,2.1954034E-1,1.9168936E-1,-3.5087338E-1,5.4792672E-2,6.447871E-1,-1.994495E-1,6.4358145E-1,-1.8915597E-1,-4.656324E-2,2.865111E-1,-4.2676783E-1,1.0209091E0,-4.294086E-2,-4.4038184E-2,8.895389E-2,9.602024E-2,-3.6097415E-2,-4.524011E-2,6.617358E-2,-1.3455471E-1,6.612032E-1,5.3095832E-2,-4.6864647E-2,-3.2563444E-2,1.147019E0,4.0789988E-2,-1.44429E-2,8.2941614E-2,-1.9355787E-2,6.9978505E-2,-4.1768078E-2,1.0052447E-1,-8.171281E-3],"categories":[],"categories_nodes":[],"categories_segments":[],"categories_sizes":[],"default_left":[0,0,0,0,0,0,0,0,0,0,0,0,0,0,0,0,0,0,0,0,0,0,0,0,0,0,0,0,0,0,0,0,0,0,0],"id":27,"left_children":[1,3,5,7,9,11,13,15,17,19,-1,21,23,25,-1,-1,-1,-1,-1,-1,27,29,31,-1,-1,-1,33,-1,-1,-1,-1,-1,-1,-1,-1],"loss_changes":[1.1846445E1,4.3676963E0,8.6201725E0,3.421585E0,2.8121986E0,1.0180791E1,1.5838167E1,5.560932E0,5.9541316E0,4.599448E0,0E0,9.784854E0,5.537049E0,5.228651E0,0E0,0E0,0E0,0E0,0E0,0E0,3.2863295E0,3.9954238E0,8.715859E0,0E0,0E0,0E0,3.4887047E0,0E0,0E0,0E0,0E0,0E0,0E0,0E0,0E0],"parents":[2147483647,0,0,1,1,2,2,3,3,4,4,5,5,6,6,7,7,8,8,9,9,11,11,12,12,13,13,20,20,21,21,22,22,26,26],"right_children":[2,4,6,8,10,12,14,16,18,20,-1,22,24,26,-1,-1,-1,-1,-1,-1,28,30,32,-1,-1,-1,34,-1,-1,-1,-1,-1,-1,-1,-1],"split_conditions":[2.3005831E0,1.1780305E2,2.9206747E2,5.5593624E1,2.63E2,2.475249E0,3.4782748E0,2.7512506E2,2.43E2,5.415435E1,-4.656324E-2,1.6508548E0,1.4207389E0,4E0,-4.294086E-2,-4.4038184E-2,8.895389E-2,9.602024E-2,-3.6097415E-2,-4.524011E-2,6.271827E-2,2E0,2.1817129E0,5.3095832E-2,-4.6864647E-2,-3.2563444E-2,6.4E1,4.0789988E-2,-1.44429E-2,8.2941614E-2,-1.9355787E-2,6.9978505E-2,-4.1768078E-2,1.0052447E-1,-8.171281E-3],"split_indices":[16,3,4,0,4,15,9,4,4,0,0,17,17,2,0,0,0,0,0,0,16,10,17,0,0,0,0,0,0,0,0,0,0,0,0],"split_type":[0,0,0,0,0,0,0,0,0,0,0,0,0,0,0,0,0,0,0,0,0,0,0,0,0,0,0,0,0,0,0,0,0,0,0],"sum_hessian":[2.1734892E2,9.4802E1,1.2254692E2,1.7631823E1,7.717018E1,8.9141045E1,3.3405876E1,9.750679E0,7.881144E0,4.6475567E1,3.069461E1,6.045581E1,2.8685232E1,2.544267E1,7.963207E0,8.149463E0,1.6012163E0,5.160743E0,2.7204008E0,1.8294874E1,2.8180695E1,2.8768112E1,3.1687696E1,3.2472425E0,2.5437988E1,1.8838629E0,2.3558807E1,9.688849E0,1.8491844E1,1.6892745E0,2.7078838E1,2.7064634E1,4.6230617E0,2.1654076E1,1.9047323E0],"tree_param":{"num_deleted":"0","num_feature":"19","num_nodes":"35","size_leaf_vector":"1"}},{"base_weights":[6.961543E-3,5.644232E-1,-1.2147408E-1,-4.222617E-2,8.1818014E-1,-3.249363E-1,3.922746E-1,4.1230702E-1,1.2081367E0,-3.7340936E-1,3.8939136E-1,1.9287102E-1,1.01141304E-1,6.549541E-1,-3.888051E-2,1.3147827E0,3.0259618E-3,-4.065493E-1,3.5840684E-1,1.04552425E-1,-2.5732365E-2,3.2711065E-1,-4.126787E-2,7.021438E-2,-1.6223073E-2,9.6394885E-3,1.1228642E-1,-3.7678597E-3,-3.7883185E-2,9.0743855E-2,-3.5181727E-2,8.446377E-2,7.92842E-3],"categories":[],"categories_nodes":[],"categories_segments":[],"categories_sizes":[],"default_left":[0,0,0,0,0,0,0,0,0,0,0,0,0,0,0,0,0,0,0,0,0,0,0,0,0,0,0,0,0,0,0,0,0],"id":28,"left_children":[1,3,5,-1,7,9,11,13,15,17,19,21,-1,23,-1,25,-1,27,29,-1,-1,31,-1,-1,-1,-1,-1,-1,-1,-1,-1,-1,-1],"loss_changes":[1.5070635E1,1.1355643E1,1.8014345E1,0E0,4.6258507E0,4.408599E0,8.275713E0,4.107011E0,1.9463196E0,2.9543533E0,5.844047E0,4.074933E0,0E0,2.873756E0,0E0,1.3821297E0,0E0,2.656824E0,3.9350958E0,0E0,0E0,5.7322884E0,0E0,0E0,0E0,0E0,0E0,0E0,0E0,0E0,0E0,0E0,0E0],"parents":[2147483647,0,0,1,1,2,2,4,4,5,5,6,6,7,7,8,8,9,9,10,10,11,11,13,13,15,15,17,17,18,18,21,21],"right_children":[2,4,6,-1,8,10,12,14,16,18,20,22,-1,24,-1,26,-1,28,30,-1,-1,32,-1,-1,-1,-1,-1,-1,-1,-1,-1,-1,-1],"split_conditions":[1.1971393E2,1E0,1.4E1,-4.222617E-2,1.8182979E0,2.5729575E0,2.9075556E0,1.4780644E0,2.2744153E0,1.7220316E2,1.340848E2,2.6288095E0,1.01141304E-1,2.0002766E0,-3.888051E-2,1.414522E0,3.0259618E-3,1.4E1,2.2973576E0,1.04552425E-1,-2.5732365E-2,1E0,-4.126787E-2,7.021438E-2,-1.6223073E-2,9.6394885E-3,1.1228642E-1,-3.7678597E-3,-3.7883185E-2,9.0743855E-2,-3.5181727E-2,8.446377E-2,7.92842E-3],"split_indices":[7,1,18,0,9,17,15,9,17,3,7,17,0,15,0,17,0,13,15,0,0,1,0,0,0,0,0,0,0,0,0,0,0],"split_type":[0,0,0,0,0,0,0,0,0,0,0,0,0,0,0,0,0,0,0,0,0,0,0,0,0,0,0,0,0,0,0,0,0],"sum_hessian":[2.085322E2,3.841242E1,1.7011977E2,7.0381093E0,3.137431E1,1.2212254E2,4.799723E1,1.6381496E1,1.4992812E1,1.1480906E2,7.3134875E0,4.005809E1,7.939138E0,1.3110951E1,3.2705455E0,1.3627541E1,1.3652718E0,1.1026043E2,4.5486274E0,2.827262E0,4.4862256E0,3.413162E1,5.926473E0,1.03898325E1,2.721119E0,1.1062264E0,1.2521314E1,1.758855E1,9.267188E1,2.0929797E0,2.4556475E0,7.2692175E0,2.68624E1],"tree_param":{"num_deleted":"0","num_feature":"19","num_nodes":"33","size_leaf_vector":"1"}},{"base_weights":[-1.5108756E-2,-1.7572248E-1,7.0889366E-1,-4.9084273E-1,3.008652E-1,-3.9321486E-2,8.8100064E-1,-4.7085423E-2,-2.665519E-1,6.1158586E-1,-4.5529198E-2,-3.5642132E-2,1.0078102E0,6.636341E-1,-4.575748E-2,-2.9981429E-2,7.4572736E-1,-2.9845284E-2,1.091518E0,-3.4964677E-2,9.576721E-2,7.049856E-2,-3.945469E-2,-6.206064E-3,9.408458E-2],"categories":[],"categories_nodes":[],"categories_segments":[],"categories_sizes":[],"default_left":[0,0,0,0,0,0,0,0,0,0,0,0,0,0,0,0,0,0,0,0,0,0,0,0,0],"id":29,"left_children":[1,3,5,7,9,-1,11,-1,13,15,-1,-1,17,19,-1,-1,21,-1,23,-1,-1,-1,-1,-1,-1],"loss_changes":[2.4568375E1,2.6105524E1,8.359087E0,2.1320229E0,1.9112549E1,0E0,6.153534E0,0E0,9.902135E0,7.1106606E0,0E0,0E0,4.0204906E0,5.659855E0,0E0,0E0,8.120632E0,0E0,3.029335E0,0E0,0E0,0E0,0E0,0E0,0E0],"parents":[2147483647,0,0,1,1,2,2,3,3,4,4,6,6,8,8,9,9,12,12,13,13,16,16,18,18],"right_children":[2,4,6,8,10,-1,12,-1,14,16,-1,-1,18,20,-1,-1,22,-1,24,-1,-1,-1,-1,-1,-1],"split_conditions":[3E0,3.7704847E0,1E0,2.7343494E2,2.5450078E2,-3.9321486E-2,2.1629851E2,-4.7085423E-2,1.866102E0,1.2063795E2,-4.5529198E-2,-3.5642132E-2,5.3008213E1,6.0082006E-1,-4.575748E-2,-2.9981429E-2,1E0,-2.9845284E-2,1.1061306E2,-3.4964677E-2,9.576721E-2,7.049856E-2,-3.945469E-2,-6.206064E-3,9.408458E-2],"split_indices":[11,16,6,4,4,0,4,0,17,7,0,0,0,9,0,0,5,0,7,0,0,0,0,0,0],"split_type":[0,0,0,0,0,0,0,0,0,0,0,0,0,0,0,0,0,0,0,0,0,0,0,0,0],"sum_hessian":[2.0920651E2,1.718421E2,3.7364407E1,1.0342649E2,6.841561E1,4.452588E0,3.291182E1,7.0907486E1,3.251901E1,5.0629776E1,1.7785833E1,2.6523924E0,3.0259426E1,7.7481437E0,2.4770864E1,5.846457E0,4.4783318E1,1.5318966E0,2.872753E1,2.5883148E0,5.1598287E0,4.0628338E1,4.1549807E0,1.9428073E0,2.6784723E1],"tree_param":{"num_deleted":"0","num_feature":"19","num_nodes":"25","size_leaf_vector":"1"}},{"base_weights":[-9.647295E-3,5.418246E-1,-3.5360128E-1,7.9703045E-1,-1.8011893E-1,-7.799191E-3,-5.011267E-1,1.0039947E0,1.07067846E-1,3.5568315E-1,-3.8844787E-2,3.2935977E-1,-3.6816835E-1,-5.20154E-1,4.0072184E-2,8.77905E-2,2.9901937E-1,7.192386E-2,-1.13963E-1,8.191296E-2,-2.4437062E-2,5.4970396E-1,-2.7961977E-2,1.87059E-2,-3.6183618E-2,1.4290373E-2,-4.316283E-2,5.879282E-2,-3.5463583E-2,-2.3958422E-2,5.0702438E-2,-3.329378E-2,5.675785E-2],"categories":[],"categories_nodes":[],"categories_segments":[],"categories_sizes":[],"default_left":[0,0,0,0,0,0,0,0,0,0,0,0,0,0,0,0,0,0,0,0,0,0,0,0,0,0,0,0,0,0,0,0,0],"id":30,"left_children":[1,3,5,7,9,11,13,15,17,19,-1,21,23,25,-1,-1,27,-1,29,-1,-1,31,-1,-1,-1,-1,-1,-1,-1,-1,-1,-1,-1],"loss_changes":[4.0025475E1,1.5078882E1,6.6250362E0,8.471142E0,3.7710242E0,4.9660063E0,1.9968433E0,2.706459E0,2.7250338E0,4.094698E0,0E0,3.3526616E0,1.1057541E0,1.3134117E0,0E0,0E0,2.5151258E0,0E0,1.9377106E0,0E0,0E0,2.8167577E0,0E0,0E0,0E0,0E0,0E0,0E0,0E0,0E0,0E0,0E0,0E0],"parents":[2147483647,0,0,1,1,2,2,3,3,4,4,5,5,6,6,7,7,8,8,9,9,11,11,12,12,13,13,16,16,18,18,21,21],"right_children":[2,4,6,8,10,12,14,16,18,20,-1,22,24,26,-1,-1,28,-1,30,-1,-1,32,-1,-1,-1,-1,-1,-1,-1,-1,-1,-1,-1],"split_conditions":[4E0,6E0,1.2016401E0,2.6513908E0,2E0,1E0,3.6694796E0,1.5223141E2,1E0,3E0,-3.8844787E-2,1.4205328E2,1.08396484E2,1.05E2,4.0072184E-2,8.77905E-2,2.706479E2,7.192386E-2,3E0,8.191296E-2,-2.4437062E-2,4.2E1,-2.7961977E-2,1.87059E-2,-3.6183618E-2,1.4290373E-2,-4.316283E-2,5.879282E-2,-3.5463583E-2,-2.3958422E-2,5.0702438E-2,-3.329378E-2,5.675785E-2],"split_indices":[2,18,16,16,10,11,15,3,1,14,0,3,3,3,0,0,4,0,10,0,0,0,0,0,0,0,0,0,0,0,0,0,0],"split_type":[0,0,0,0,0,0,0,0,0,0,0,0,0,0,0,0,0,0,0,0,0,0,0,0,0,0,0,0,0,0,0,0,0],"sum_hessian":[2.0900471E2,8.0062614E1,1.289421E2,5.9075504E1,2.0987106E1,3.8873898E1,9.00682E1,4.509382E1,1.3981687E1,7.560334E0,1.3426772E1,2.012817E1,1.874573E1,8.8861725E1,1.2064754E0,3.932756E1,5.7662563E0,2.3813818E0,1.1600306E1,3.4871438E0,4.07319E0,1.5339682E1,4.7884874E0,2.0802844E0,1.6665445E1,2.176404E0,8.668532E1,3.6392457E0,2.1270106E0,9.77467E0,1.8256354E0,1.9494641E0,1.3390218E1],"tree_param":{"num_deleted":"0","num_feature":"19","num_nodes":"33","size_leaf_vector":"1"}},{"base_weights":[5.955828E-3,1.3601477E-1,-2.4334387E-1,2.1821228E-1,-4.6038583E-1,4.100836E-1,-3.4985584E-1,4.4118896E-1,5.6087516E-2,1.454574E-1,-4.5177333E-2,7.802055E-1,-3.635976E-2,-4.8195305E-1,-1.633098E-1,2.776033E-1,1.0147435E-1,9.3955773E-1,-4.527725E-2,5.2671533E-2,-2.7974991E-2,1.0940424E-1,1.1001656E-1,-4.4234145E-2,-8.035966E-2,2.0629118E-1,-4.3989066E-2,4.0441253E-3,6.935561E-2,1.06176935E-1,1.9575076E-2,7.915433E-3,-4.5089792E-2,8.283952E-2,-3.6155067E-2,8.283758E-2,-3.9005674E-2,-4.214756E-2,7.5664245E-2],"categories":[],"categories_nodes":[],"categories_segments":[],"categories_sizes":[],"default_left":[0,0,0,0,0,0,0,0,0,0,0,0,0,0,0,0,0,0,0,0,0,0,0,0,0,0,0,0,0,0,0,0,0,0,0,0,0,0,0],"id":31,"left_children":[1,3,5,7,9,11,13,15,17,19,-1,21,-1,23,25,27,-1,29,31,-1,-1,33,-1,-1,35,37,-1,-1,-1,-1,-1,-1,-1,-1,-1,-1,-1,-1,-1],"loss_changes":[7.129736E0,7.1830454E0,5.3909025E0,4.589955E0,1.208617E0,3.8835094E0,1.5321207E0,6.9007063E0,6.7642198E0,1.097146E0,0E0,3.0785556E0,0E0,1.0317354E0,4.201222E0,6.1151314E0,0E0,1.7686214E0,5.1606116E0,0E0,0E0,3.00969E0,0E0,0E0,3.6131124E0,8.822567E0,0E0,0E0,0E0,0E0,0E0,0E0,0E0,0E0,0E0,0E0,0E0,0E0,0E0],"parents":[2147483647,0,0,1,1,2,2,3,3,4,4,5,5,6,6,7,7,8,8,9,9,11,11,13,13,14,14,15,15,17,17,18,18,21,21,24,24,25,25],"right_children":[2,4,6,8,10,12,14,16,18,20,-1,22,-1,24,26,28,-1,30,32,-1,-1,34,-1,-1,36,38,-1,-1,-1,-1,-1,-1,-1,-1,-1,-1,-1,-1,-1],"split_conditions":[3.7704847E0,6.599956E1,1.09603714E2,1.2682265E2,1.3995128E0,3E0,1.3927281E2,2.9561288E0,2E0,2.0014417E0,-4.5177333E-2,1E0,-3.635976E-2,6.659699E1,2E0,1.221744E2,1.0147435E-1,8.3539623E-1,2E0,5.2671533E-2,-2.7974991E-2,2.19E2,1.1001656E-1,-4.4234145E-2,1.2003097E2,1.2429741E2,-4.3989066E-2,4.0441253E-3,6.935561E-2,1.06176935E-1,1.9575076E-2,7.915433E-3,-4.5089792E-2,8.283952E-2,-3.6155067E-2,8.283758E-2,-3.9005674E-2,-4.214756E-2,7.5664245E-2],"split_indices":[16,0,7,3,17,10,7,16,2,16,0,6,0,0,11,3,0,16,11,0,0,4,0,0,3,3,0,0,0,0,0,0,0,0,0,0,0,0,0],"split_type":[0,0,0,0,0,0,0,0,0,0,0,0,0,0,0,0,0,0,0,0,0,0,0,0,0,0,0,0,0,0,0,0,0,0,0,0,0,0,0],"sum_hessian":[2.1787224E2,1.4347575E2,7.4396484E1,1.26654076E2,1.682168E1,1.002783E1,6.436865E1,5.2595745E1,7.405833E1,2.4133432E0,1.4408337E1,7.0901637E0,2.937667E0,3.675681E1,2.7611841E1,4.502725E1,7.568499E0,6.7714005E0,6.728693E1,1.0234342E0,1.3899091E0,3.889282E0,3.2008817E0,3.0916151E1,5.8406587E0,1.4353836E1,1.3258006E1,3.3288277E1,1.1738971E1,3.7624087E0,3.0089917E0,5.3273624E1,1.4013304E1,1.1490057E0,2.7402763E0,1.1490985E0,4.6915603E0,7.352404E0,7.0014315E0],"tree_param":{"num_deleted":"0","num_feature":"19","num_nodes":"39","size_leaf_vector":"1"}},{"base_weights":[-1.982973E-2,-2.4206848E-1,1.737303E-1,-4.319935E-1,4.4647864E-1,4.996153E-1,-2.4920214E-2,5.2054745E-1,-5.0036407E-1,9.622184E-1,-4.191317E-2,-3.0243544E-2,6.1429757E-1,-3.7372506E-1,2.9489148E-1,8.8456875E-1,-2.7962355E-2,-5.3730637E-1,1.6246063E-1,9.739664E-2,-3.269544E-2,2.3500146E-2,8.7982345E-1,-4.7245268E-2,-9.821811E-2,-4.3247964E-2,5.709942E-1,6.4556133E-3,9.6282825E-2,-4.718125E-2,-1.35505935E-2,8.261319E-2,-3.4039777E-2,5.3176593E-2,-3.4476567E-2,9.209501E-2,1.6331647E-2,-3.6962125E-2,5.434289E-2,9.0985E-2,-7.833743E-3],"categories":[],"categories_nodes":[],"categories_segments":[],"categories_sizes":[],"default_left":[0,0,0,0,0,0,0,0,0,0,0,0,0,0,0,0,0,0,0,0,0,0,0,0,0,0,0,0,0,0,0,0,0,0,0,0,0,0,0,0,0],"id":32,"left_children":[1,3,5,7,9,11,13,15,17,19,-1,-1,21,23,25,27,-1,29,31,-1,-1,33,35,-1,37,-1,39,-1,-1,-1,-1,-1,-1,-1,-1,-1,-1,-1,-1,-1,-1],"loss_changes":[9.083426E0,1.3042721E1,7.3227377E0,5.3093653E0,1.1382221E1,4.541459E0,8.0425825E0,2.1088233E0,1.8709526E0,5.587096E0,0E0,0E0,5.979101E0,2.0003128E0,8.995068E0,1.002672E0,0E0,1.2363148E0,2.7998147E0,0E0,0E0,4.0416713E0,4.5981464E0,0E0,4.945374E0,0E0,1.1017075E1,0E0,0E0,0E0,0E0,0E0,0E0,0E0,0E0,0E0,0E0,0E0,0E0,0E0,0E0],"parents":[2147483647,0,0,1,1,2,2,3,3,4,4,5,5,6,6,7,7,8,8,9,9,12,12,13,13,14,14,15,15,17,17,18,18,21,21,22,22,24,24,26,26],"right_children":[2,4,6,8,10,12,14,16,18,20,-1,-1,22,24,26,28,-1,30,32,-1,-1,34,36,-1,38,-1,40,-1,-1,-1,-1,-1,-1,-1,-1,-1,-1,-1,-1,-1,-1],"split_conditions":[6E0,2.8818607E2,1E0,1.06E2,1.5685982E2,1.6738833E0,1.4071002E2,1.7237889E0,7.9946036E0,6.1497864E1,-4.191317E-2,-3.0243544E-2,5.4834614E1,1.347395E2,8.1000596E-1,2.3788892E2,-2.7962355E-2,6.545512E1,1.2003097E2,9.739664E-2,-3.269544E-2,1.21E2,6.3515606E1,-4.7245268E-2,1.7633588E0,-4.3247964E-2,4.1550546E0,6.4556133E-3,9.6282825E-2,-4.718125E-2,-1.35505935E-2,8.261319E-2,-3.4039777E-2,5.3176593E-2,-3.4476567E-2,9.209501E-2,1.6331647E-2,-3.6962125E-2,5.434289E-2,9.0985E-2,-7.833743E-3],"split_indices":[18,4,6,7,7,15,7,9,16,0,0,0,0,3,16,4,0,0,3,0,0,7,0,0,17,0,16,0,0,0,0,0,0,0,0,0,0,0,0,0,0],"split_type":[0,0,0,0,0,0,0,0,0,0,0,0,0,0,0,0,0,0,0,0,0,0,0,0,0,0,0,0,0,0,0,0,0,0,0,0,0,0,0,0,0],"sum_hessian":[2.0918362E2,9.7261185E1,1.1192245E2,7.652543E1,2.0735752E1,4.1813156E1,7.010929E1,4.6820006E0,7.184343E1,1.3545227E1,7.190525E0,4.5668383E0,3.724632E1,3.3453938E1,3.665535E1,3.2892106E0,1.3927903E0,6.823003E1,3.6134055E0,1.1513544E1,2.0316834E0,1.1886736E1,2.5359585E1,1.8080175E1,1.5373763E1,8.866679E0,2.7788671E1,1.2903085E0,1.9989021E0,5.9187946E1,9.042079E0,1.1520139E0,2.4613914E0,4.73846E0,7.1482754E0,1.7590982E1,7.768602E0,1.074959E1,4.624173E0,1.4669192E1,1.311948E1],"tree_param":{"num_deleted":"0","num_feature":"19","num_nodes":"41","size_leaf_vector":"1"}},{"base_weights":[1.261516E-2,3.0009666E-1,-1.797902E-1,-2.9196033E-1,5.8957756E-1,-4.4705218E-1,3.1220227E-1,4.5485327E-1,-4.9680704E-1,1.4004833E-1,7.90518E-1,-3.9058775E-2,5.713611E-2,-2.7157834E-1,6.7672646E-1,-3.6173377E-2,9.899904E-2,-4.6077736E-2,1.4521806E-2,-4.3131016E-2,6.854534E-1,7.1525656E-2,9.290115E-1,4.4674394E-1,-4.483791E-2,8.4183216E-1,-3.7715364E-2,7.868984E-2,-3.366391E-2,2.8391136E-2,-3.569481E-2,1.1442544E-2,8.452498E-2,6.828732E-2,-2.985383E-2,3.516466E-2,8.6198546E-2],"categories":[],"categories_nodes":[],"categories_segments":[],"categories_sizes":[],"default_left":[0,0,0,0,0,0,0,0,0,0,0,0,0,0,0,0,0,0,0,0,0,0,0,0,0,0,0,0,0,0,0,0,0,0,0,0,0],"id":33,"left_children":[1,3,5,7,9,11,13,15,17,19,21,-1,-1,23,25,-1,-1,-1,-1,-1,27,29,31,33,-1,35,-1,-1,-1,-1,-1,-1,-1,-1,-1,-1,-1],"loss_changes":[1.2052157E1,1.5141993E1,1.7308407E1,4.716166E0,5.2180595E0,4.414646E0,1.00898075E1,5.414972E0,1.3670945E0,7.5704613E0,3.9717426E0,0E0,0E0,4.111794E0,5.8835783E0,0E0,0E0,0E0,0E0,0E0,4.1153955E0,1.2781581E0,3.2494965E0,2.2845063E0,0E0,1.9591503E0,0E0,0E0,0E0,0E0,0E0,0E0,0E0,0E0,0E0,0E0,0E0],"parents":[2147483647,0,0,1,1,2,2,3,3,4,4,5,5,6,6,7,7,8,8,9,9,10,10,13,13,14,14,20,20,21,21,22,22,23,23,25,25],"right_children":[2,4,6,8,10,12,14,16,18,20,22,-1,-1,24,26,-1,-1,-1,-1,-1,28,30,32,34,-1,36,-1,-1,-1,-1,-1,-1,-1,-1,-1,-1,-1],"split_conditions":[1.3465335E2,1E0,2E0,1.05E2,7E0,6.742012E1,2.3815556E0,1E0,2.714265E0,1.8119621E0,1.08685974E2,-3.9058775E-2,5.713611E-2,1E0,2.3471074E0,-3.6173377E-2,9.899904E-2,-4.6077736E-2,1.4521806E-2,-4.3131016E-2,6E0,1E0,1.2521008E0,3.1847842E2,-4.483791E-2,2.4831705E2,-3.7715364E-2,7.868984E-2,-3.366391E-2,2.8391136E-2,-3.569481E-2,1.1442544E-2,8.452498E-2,6.828732E-2,-2.985383E-2,3.516466E-2,8.6198546E-2],"split_indices":[7,8,11,7,12,0,15,6,15,17,7,0,0,1,17,0,0,0,0,0,12,6,17,4,0,4,0,0,0,0,0,0,0,0,0,0,0],"split_type":[0,0,0,0,0,0,0,0,0,0,0,0,0,0,0,0,0,0,0,0,0,0,0,0,0,0,0,0,0,0,0,0,0,0,0,0,0],"sum_hessian":[2.1591476E2,8.634424E1,1.2957053E2,2.8351053E1,5.7993187E1,8.4020134E1,4.5550392E1,5.839913E0,2.251114E1,1.843924E1,3.9553947E1,8.1702225E1,2.3179128E0,1.7607382E1,2.7943008E1,2.9005835E0,2.9393294E0,2.029366E1,2.217481E0,8.217537E0,1.0221703E1,6.6333256E0,3.292062E1,4.893525E0,1.2713857E1,2.4663258E1,3.2797518E0,8.138873E0,2.0828302E0,4.4901776E0,2.1431482E0,4.8927026E0,2.8027918E1,3.2431726E0,1.6503525E0,1.0169082E1,1.4494176E1],"tree_param":{"num_deleted":"0","num_feature":"19","num_nodes":"37","size_leaf_vector":"1"}},{"base_weights":[5.277661E-3,-2.4858972E-1,4.7588718E-1,-4.666387E-2,1.8394713E-1,-4.200966E-2,5.88733E-1,-4.5431808E-2,5.847232E-1,1.1621947E0,3.8272598E-1,9.864084E-1,-3.554297E-2,9.809314E-2,9.435486E-3,-1.6262281E-1,8.279516E-1,-1.6726634E-2,9.2378356E-2,-4.4887047E-2,8.714776E-2,4.630069E-2,-4.136299E-2,7.528897E-2,-3.2049213E-2],"categories":[],"categories_nodes":[],"categories_segments":[],"categories_sizes":[],"default_left":[0,0,0,0,0,0,0,0,0,0,0,0,0,0,0,0,0,0,0,0,0,0,0,0,0],"id":34,"left_children":[1,3,5,-1,7,-1,9,-1,11,13,15,17,19,-1,-1,21,23,-1,-1,-1,-1,-1,-1,-1,-1],"loss_changes":[2.5474394E1,2.0161491E1,8.748703E0,0E0,1.8769793E1,0E0,7.5430603E0,0E0,1.0102323E1,1.0163116E0,1.2574929E1,5.1833534E0,1.057092E1,0E0,0E0,6.5697894E0,4.3213882E0,0E0,0E0,0E0,0E0,0E0,0E0,0E0,0E0],"parents":[2147483647,0,0,1,1,2,2,4,4,6,6,8,8,9,9,10,10,11,11,12,12,15,15,16,16],"right_children":[2,4,6,-1,8,-1,10,-1,12,14,16,18,20,-1,-1,22,24,-1,-1,-1,-1,-1,-1,-1,-1],"split_conditions":[2.3018258E0,8E0,1.2063795E2,-4.666387E-2,7E0,-4.200966E-2,2.6E0,-4.5431808E-2,1.8847755E0,2.45E2,3.4782748E0,1.1061306E2,6.599956E1,9.809314E-2,9.435486E-3,1.2862277E2,1.5630606E2,-1.6726634E-2,9.2378356E-2,-4.4887047E-2,8.714776E-2,4.630069E-2,-4.136299E-2,7.528897E-2,-3.2049213E-2],"split_indices":[9,14,7,0,18,0,9,0,17,4,9,7,0,0,0,7,3,0,0,0,0,0,0,0,0],"split_type":[0,0,0,0,0,0,0,0,0,0,0,0,0,0,0,0,0,0,0,0,0,0,0,0,0],"sum_hessian":[2.1123387E2,1.3752086E2,7.3713005E1,7.733128E1,6.0189583E1,7.097817E0,6.661519E1,2.0783438E1,3.9406147E1,1.6379118E1,5.0236073E1,2.3559004E1,1.5847142E1,1.5269522E1,1.1095958E0,2.28645E1,2.7371572E1,2.8777523E0,2.0681252E1,1.1142572E1,4.7045693E0,7.19036E0,1.567414E1,2.5277311E1,2.0942605E0],"tree_param":{"num_deleted":"0","num_feature":"19","num_nodes":"25","size_leaf_vector":"1"}},{"base_weights":[1.0719286E-2,5.047457E-1,-3.5870028E-1,8.2991576E-1,-1.03602195E-2,2.7645058E-3,-4.9699083E-1,9.047609E-1,-2.0836752E-2,5.9352833E-1,-3.800993E-2,6.8217695E-1,-2.0400476E-1,-1.6089769E-1,-4.4190485E-2,1.0517813E0,3.3104336E-1,2.8786257E-1,8.0212764E-2,8.7120247E-1,-2.4971118E-2,1.1972689E-1,-3.8950127E-2,-2.9657621E-2,3.529051E-1,8.9003935E-2,2.4793543E-2,-1.119755E-2,6.2072914E-2,7.85915E-2,-9.1995875E-4,-3.6953937E-4,8.767797E-2,4.41714E-2,-4.0128745E-2,5.4785203E-2,-2.651607E-2],"categories":[],"categories_nodes":[],"categories_segments":[],"categories_sizes":[],"default_left":[0,0,0,0,0,0,0,0,0,0,0,0,0,0,0,0,0,0,0,0,0,0,0,0,0,0,0,0,0,0,0,0,0,0,0,0,0],"id":35,"left_children":[1,3,5,7,9,11,13,15,-1,17,-1,19,21,23,-1,25,27,29,-1,31,-1,33,-1,-1,35,-1,-1,-1,-1,-1,-1,-1,-1,-1,-1,-1,-1],"loss_changes":[3.9651928E1,1.5576994E1,6.216172E0,4.886635E0,1.0654399E1,5.111941E0,1.5852795E0,4.1689796E0,0E0,1.7769694E0,0E0,1.8675451E0,2.6140053E0,1.6546865E0,0E0,1.5562859E0,2.703429E0,2.268588E0,0E0,1.4612718E0,0E0,3.9892397E0,0E0,0E0,1.2743224E0,0E0,0E0,0E0,0E0,0E0,0E0,0E0,0E0,0E0,0E0,0E0,0E0],"parents":[2147483647,0,0,1,1,2,2,3,3,4,4,5,5,6,6,7,7,9,9,11,11,12,12,13,13,15,15,16,16,17,17,19,19,21,21,24,24],"right_children":[2,4,6,8,10,12,14,16,-1,18,-1,20,22,24,-1,26,28,30,-1,32,-1,34,-1,-1,36,-1,-1,-1,-1,-1,-1,-1,-1,-1,-1,-1,-1],"split_conditions":[6E0,1E0,4E0,1.5630606E2,4E0,2E0,5.0552225E-1,6.00008E1,-2.0836752E-2,3E0,-3.800993E-2,1.6051774E0,1E0,1E-1,-4.4190485E-2,1.6051774E0,6E1,5.415435E1,8.0212764E-2,1.4292717E2,-2.4971118E-2,1E0,-3.8950127E-2,-2.9657621E-2,1.61657E2,8.9003935E-2,2.4793543E-2,-1.119755E-2,6.2072914E-2,7.85915E-2,-9.1995875E-4,-3.6953937E-4,8.767797E-2,4.41714E-2,-4.0128745E-2,5.4785203E-2,-2.651607E-2],"split_indices":[12,11,2,3,2,10,9,0,0,2,0,9,11,9,0,9,13,0,0,7,0,8,0,0,7,0,0,0,0,0,0,0,0,0,0,0,0],"split_type":[0,0,0,0,0,0,0,0,0,0,0,0,0,0,0,0,0,0,0,0,0,0,0,0,0,0,0,0,0,0,0,0,0,0,0,0,0],"sum_hessian":[2.1527518E2,9.19473E1,1.23327866E2,5.5990883E1,3.5956425E1,3.439804E1,8.8929825E1,5.2553738E1,3.4371436E0,1.5517191E1,2.0439234E1,7.4894905E0,2.690855E1,1.31349945E1,7.579483E1,4.1170216E1,1.1383522E1,9.85673E0,5.6604605E0,6.3971677E0,1.0923233E0,1.2816965E1,1.4091584E1,9.524098E0,3.610896E0,3.759134E1,3.5788763E0,5.8621864E0,5.521335E0,2.2816327E0,7.575098E0,1.5065124E0,4.890655E0,7.623083E0,5.1938815E0,2.4311347E0,1.1797616E0],"tree_param":{"num_deleted":"0","num_feature":"19","num_nodes":"37","size_leaf_vector":"1"}},{"base_weights":[2.4444421E-3,1.0691279E-1,-3.1985438E-1,1.7658933E-1,-3.3297863E-2,6.9678895E-2,-3.4612276E-2,-9.63468E-2,2.785611E-1,6.193405E-1,-4.0584646E-2,-2.8102848E-1,2.6567483E-1,4.527814E-1,-1.4014952E-1,1.0407163E-1,-3.9557643E-2,2.4107186E-2,-3.3907175E-2,8.733915E-4,8.91481E-2,5.5300806E-2,1.07833715E-2,-3.2975014E-2,3.2989655E-2,4.68179E-2,-3.336112E-2],"categories":[],"categories_nodes":[],"categories_segments":[],"categories_sizes":[],"default_left":[0,0,0,0,0,0,0,0,0,0,0,0,0,0,0,0,0,0,0,0,0,0,0,0,0,0,0],"id":36,"left_children":[1,3,5,7,-1,9,-1,11,13,15,-1,17,19,21,23,-1,25,-1,-1,-1,-1,-1,-1,-1,-1,-1,-1],"loss_changes":[7.1592894E0,5.9260893E0,2.3172517E0,3.9899073E0,0E0,4.2942605E0,0E0,2.7137702E0,7.6442604E0,3.1398633E0,0E0,2.3420475E0,2.9819427E0,5.4898653E0,4.8743567E0,0E0,1.2975444E0,0E0,0E0,0E0,0E0,0E0,0E0,0E0,0E0,0E0,0E0],"parents":[2147483647,0,0,1,1,2,2,3,3,5,5,7,7,8,8,9,9,11,11,12,12,13,13,14,14,16,16],"right_children":[2,4,6,8,-1,10,-1,12,14,16,-1,18,20,22,24,-1,26,-1,-1,-1,-1,-1,-1,-1,-1,-1,-1],"split_conditions":[4.6869426E0,6.599956E1,6E0,2.1500111E2,-3.3297863E-2,1E0,-3.4612276E-2,6E0,2.8818607E2,1.6508548E0,-4.0584646E-2,2.172283E0,3.42E0,6E0,1.5758223E2,1.0407163E-1,2.2316532E0,2.4107186E-2,-3.3907175E-2,8.733915E-4,8.91481E-2,5.5300806E-2,1.07833715E-2,-3.2975014E-2,3.2989655E-2,4.68179E-2,-3.336112E-2],"split_indices":[16,0,12,4,0,8,0,14,4,17,0,15,15,14,7,0,15,0,0,0,0,0,0,0,0,0,0],"split_type":[0,0,0,0,0,0,0,0,0,0,0,0,0,0,0,0,0,0,0,0,0,0,0,0,0,0,0],"sum_hessian":[2.1061531E2,1.5956348E2,5.1051834E1,1.4139368E2,1.8169792E1,1.1549565E1,3.950227E1,3.8472885E1,1.029208E2,5.8772497E0,5.6723156E0,2.562452E1,1.2848366E1,7.2622215E1,3.029858E1,2.4100146E0,3.467235E0,4.827687E0,2.0796831E1,1.0660992E1,2.187374E0,4.0828613E1,3.1793604E1,2.047267E1,9.825911E0,1.0985043E0,2.3687308E0],"tree_param":{"num_deleted":"0","num_feature":"19","num_nodes":"27","size_leaf_vector":"1"}},{"base_weights":[1.3671907E-2,1.05591975E-1,-3.903381E-1,-1.2926084E-1,2.7893376E-1,-5.153391E-1,1.10795096E-1,-4.476582E-1,7.726587E-2,-7.2898634E-2,4.7453156E-1,-4.5822315E-2,1.3583748E-2,6.832415E-2,-3.8912985E-2,-4.3108616E-2,1.6912459E-1,9.3734704E-2,-7.082674E-2,2.919699E-1,-3.1719372E-1,5.9589505E-2,7.6677567E-1,7.743935E-2,-3.3095513E-2,-4.429553E-2,1.0927275E-2,-3.632575E-2,4.0397454E-2,9.542291E-3,-4.4525623E-2,2.334031E-2,-4.324384E-2,7.338072E-2,-6.959532E-4],"categories":[],"categories_nodes":[],"categories_segments":[],"categories_sizes":[],"default_left":[0,0,0,0,0,0,0,0,0,0,0,0,0,0,0,0,0,0,0,0,0,0,0,0,0,0,0,0,0,0,0,0,0,0,0],"id":37,"left_children":[1,3,5,7,9,11,13,15,17,19,21,-1,-1,-1,-1,-1,23,-1,25,27,29,31,33,-1,-1,-1,-1,-1,-1,-1,-1,-1,-1,-1,-1],"loss_changes":[7.9210744E0,7.1050806E0,2.5340462E0,4.928413E0,6.9316416E0,1.3496704E0,4.284728E0,1.7464652E0,7.5375166E0,3.361781E0,7.7814074E0,0E0,0E0,0E0,0E0,0E0,2.5197978E0,0E0,4.2275944E0,2.649291E0,2.4116998E0,4.025207E0,4.4176884E0,0E0,0E0,0E0,0E0,0E0,0E0,0E0,0E0,0E0,0E0,0E0,0E0],"parents":[2147483647,0,0,1,1,2,2,3,3,4,4,5,5,6,6,7,7,8,8,9,9,10,10,16,16,18,18,19,19,20,20,21,21,22,22],"right_children":[2,4,6,8,10,12,14,16,18,20,22,-1,-1,-1,-1,-1,24,-1,26,28,30,32,34,-1,-1,-1,-1,-1,-1,-1,-1,-1,-1,-1,-1],"split_conditions":[1.62E2,1.7633588E0,1.4055386E2,1E0,1.9218296E0,9.1E1,1.4674524E2,7.9946036E0,2E-1,1.1780305E2,1.2682265E2,-4.5822315E-2,1.3583748E-2,6.832415E-2,-3.8912985E-2,-4.3108616E-2,1.2003097E2,9.3734704E-2,2.4900625E0,1.32E2,2.63E2,2E0,6.8640757E0,7.743935E-2,-3.3095513E-2,-4.429553E-2,1.0927275E-2,-3.632575E-2,4.0397454E-2,9.542291E-3,-4.4525623E-2,2.334031E-2,-4.324384E-2,7.338072E-2,-6.959532E-4],"split_indices":[7,17,3,11,16,13,3,16,16,3,3,0,0,0,0,0,3,0,16,7,4,11,16,0,0,0,0,0,0,0,0,0,0,0,0],"split_type":[0,0,0,0,0,0,0,0,0,0,0,0,0,0,0,0,0,0,0,0,0,0,0,0,0,0,0,0,0,0,0,0,0,0,0],"sum_hessian":[2.111856E2,1.7264432E2,3.854127E1,7.3422226E1,9.922209E1,3.0824232E1,7.717041E0,2.8427956E1,4.4994267E1,3.567637E1,6.3545723E1,2.8591219E1,2.2330132E0,3.2465096E0,4.4705315E0,2.4876043E1,3.5519116E0,4.5389776E0,4.0455288E1,1.422916E1,2.144721E1,2.6757732E1,3.678799E1,1.2194859E0,2.3324258E0,1.165441E1,2.8800879E1,2.9088597E0,1.13203E1,7.774012E0,1.3673198E1,1.9664383E1,7.0933495E0,3.0656221E1,6.131769E0],"tree_param":{"num_deleted":"0","num_feature":"19","num_nodes":"35","size_leaf_vector":"1"}},{"base_weights":[7.2270115E-3,-2.4851698E-1,1.6147684E-1,-5.1171225E-1,1.0669953E-1,2.548846E-1,-1.4233309E-1,-4.5874786E-2,-9.763674E-2,8.2730305E-1,-6.581035E-2,7.549859E-2,7.0984983E-1,3.6713985E-1,-3.570076E-2,-3.8638826E-2,6.8401694E-2,8.6598225E-2,-2.3915049E-2,-2.8485563E-1,5.9507346E-1,3.9241612E-1,-2.4308565E-1,2.3063232E-1,7.996811E-2,-3.748374E-2,7.404418E-1,2.6025865E-2,-4.0250506E-2,-3.3854958E-2,9.370984E-2,-3.522673E-2,4.900945E-2,6.5638535E-2,-2.9726306E-2,-3.2293122E-2,7.93358E-2,-3.218048E-2,8.780959E-2],"categories":[],"categories_nodes":[],"categories_segments":[],"categories_sizes":[],"default_left":[0,0,0,0,0,0,0,0,0,0,0,0,0,0,0,0,0,0,0,0,0,0,0,0,0,0,0,0,0,0,0,0,0,0,0,0,0,0,0],"id":38,"left_children":[1,3,5,7,9,11,13,-1,15,17,19,21,23,25,-1,-1,-1,-1,-1,27,29,31,33,35,-1,-1,37,-1,-1,-1,-1,-1,-1,-1,-1,-1,-1,-1,-1],"loss_changes":[8.299816E0,7.45607E0,3.7598317E0,1.1106348E0,4.345798E0,8.166195E0,5.040872E0,0E0,3.0291955E0,2.2610574E0,4.335719E0,7.5014815E0,3.7076101E0,4.1895084E0,0E0,0E0,0E0,0E0,0E0,3.1326218E0,4.889803E0,7.083036E0,5.3883743E0,6.1868315E0,0E0,0E0,4.074716E0,0E0,0E0,0E0,0E0,0E0,0E0,0E0,0E0,0E0,0E0,0E0,0E0],"parents":[2147483647,0,0,1,1,2,2,3,3,4,4,5,5,6,6,8,8,9,9,10,10,11,11,12,12,13,13,19,19,20,20,21,21,22,22,23,23,26,26],"right_children":[2,4,6,8,10,12,14,-1,16,18,20,22,24,26,-1,-1,-1,-1,-1,28,30,32,34,36,-1,-1,38,-1,-1,-1,-1,-1,-1,-1,-1,-1,-1,-1,-1],"split_conditions":[7E0,8E0,2.8254196E2,3.18E2,1.7404666E0,2.5582826E2,2.357449E0,-4.5874786E-2,1E0,3E0,3.0183825E0,5.619716E1,3E0,1.022566E0,-3.570076E-2,-3.8638826E-2,6.8401694E-2,8.6598225E-2,-2.3915049E-2,1.9701493E0,1.7563573E2,8.257542E-1,1.1206208E0,1.8182979E0,7.996811E-2,-3.748374E-2,1E0,2.6025865E-2,-4.0250506E-2,-3.3854958E-2,9.370984E-2,-3.522673E-2,4.900945E-2,6.5638535E-2,-2.9726306E-2,-3.2293122E-2,7.93358E-2,-3.218048E-2,8.780959E-2],"split_indices":[12,14,4,4,15,4,15,0,5,11,9,0,14,9,0,0,0,0,0,15,4,9,17,9,0,0,11,0,0,0,0,0,0,0,0,0,0,0,0],"split_type":[0,0,0,0,0,0,0,0,0,0,0,0,0,0,0,0,0,0,0,0,0,0,0,0,0,0,0,0,0,0,0,0,0,0,0,0,0,0,0],"sum_hessian":[2.0837915E2,7.816747E1,1.3021169E2,4.4646435E1,3.352104E1,9.9714905E1,3.0496775E1,3.851978E1,6.126653E0,5.74162E0,2.7779423E1,7.23531E1,2.7361807E1,1.1317396E1,1.9179379E1,4.7131886E0,1.4134644E0,4.7127094E0,1.0289104E0,2.1291487E1,6.4879355E0,3.615525E1,3.619785E1,1.0986801E1,1.6375006E1,3.4157155E0,7.9016805E0,5.480525E0,1.5810962E1,2.4408658E0,4.04707E0,7.3520203E0,2.880323E1,3.3212984E0,3.2876553E1,6.248612E0,4.7381887E0,1.8516395E0,6.0500407E0],"tree_param":{"num_deleted":"0","num_feature":"19","num_nodes":"39","size_leaf_vector":"1"}},{"base_weights":[-5.24413E-2,-2.655238E-1,3.700193E-1,-4.2848554E-1,4.1021886E-1,-3.2905918E-2,4.8036653E-1,-5.097709E-1,8.5602276E-2,6.8448025E-1,-4.15159E-2,5.722317E-1,-3.869878E-2,-4.631889E-2,-6.257733E-2,-4.2033643E-2,7.4400777E-1,-3.449283E-2,8.6659837E-1,8.5277003E-1,3.4448573E-1,-4.15395E-2,4.0369157E-2,8.092867E-2,-2.7910898E-2,8.2696386E-2,-3.317372E-2,9.637493E-2,2.4323365E-2,-4.3715674E-2,4.761349E-2],"categories":[],"categories_nodes":[],"categories_segments":[],"categories_sizes":[],"default_left":[0,0,0,0,0,0,0,0,0,0,0,0,0,0,0,0,0,0,0,0,0,0,0,0,0,0,0,0,0,0,0],"id":39,"left_children":[1,3,5,7,9,-1,11,13,15,17,-1,19,-1,-1,21,-1,23,-1,25,27,29,-1,-1,-1,-1,-1,-1,-1,-1,-1,-1],"loss_changes":[1.7631577E1,1.4497229E1,5.8639727E0,4.4427433E0,6.924956E0,0E0,5.4180593E0,2.781805E0,6.5175176E0,4.505534E0,0E0,3.121687E0,0E0,0E0,3.7131467E0,0E0,2.6177807E0,0E0,4.242919E0,4.1282196E0,7.2895555E0,0E0,0E0,0E0,0E0,0E0,0E0,0E0,0E0,0E0,0E0],"parents":[2147483647,0,0,1,1,2,2,3,3,4,4,6,6,7,7,8,8,9,9,11,11,14,14,16,16,18,18,19,19,20,20],"right_children":[2,4,6,8,10,-1,12,14,16,18,-1,20,-1,-1,22,-1,24,-1,26,28,30,-1,-1,-1,-1,-1,-1,-1,-1,-1,-1],"split_conditions":[4.6869426E0,3E0,1.2063795E2,3.7704847E0,2.2E0,-3.2905918E-2,1.5862552E2,1.541148E2,5.91511E1,5.3008213E1,-4.15159E-2,6E0,-3.869878E-2,-4.631889E-2,1.6959226E0,-4.2033643E-2,7E0,-3.449283E-2,3.13E2,1.3344699E2,1E0,-4.15395E-2,4.0369157E-2,8.092867E-2,-2.7910898E-2,8.2696386E-2,-3.317372E-2,9.637493E-2,2.4323365E-2,-4.3715674E-2,4.761349E-2],"split_indices":[16,11,7,16,16,0,3,3,0,0,0,18,0,0,17,0,12,0,4,7,6,0,0,0,0,0,0,0,0,0,0],"split_type":[0,0,0,0,0,0,0,0,0,0,0,0,0,0,0,0,0,0,0,0,0,0,0,0,0,0,0,0,0,0,0],"sum_hessian":[1.9377371E2,1.2905293E2,6.472079E1,1.0427252E2,2.4780405E1,7.671703E0,5.7049084E1,9.004362E1,1.4228906E1,1.9336277E1,5.4441276E0,5.2457127E1,4.591958E0,7.7719696E1,1.2323922E1,7.4847665E0,6.744139E0,2.521612E0,1.6814665E1,2.227469E1,3.0182436E1,6.8739743E0,5.449948E0,5.477357E0,1.2667822E0,1.5045598E1,1.769067E0,1.2842788E1,9.431903E0,6.368575E0,2.3813862E1],"tree_param":{"num_deleted":"0","num_feature":"19","num_nodes":"31","size_leaf_vector":"1"}},{"base_weights":[-5.3524546E-4,4.6826476E-1,-3.4903568E-1,7.707136E-1,-3.388953E-2,1.10008545E-1,-4.7328952E-1,8.883954E-1,1.2510748E-1,4.6327096E-1,-4.0985903E-1,5.492279E-1,-2.2432745E-2,3.1646687E-1,-4.164902E-2,7.958218E-2,3.0830136E-1,5.6954414E-1,-3.8346097E-2,5.9569836E-1,-3.1065932E-2,1.556733E-1,-4.4139814E-2,-1.9900464E-2,8.376129E-1,-1.9080099E-2,8.58119E-2,4.7838178E-2,-3.578092E-2,1.1635421E-2,8.242669E-2,5.6723654E-2,-2.76773E-2,6.227554E-2,-3.2423068E-2,9.592309E-2,1.2340849E-2],"categories":[],"categories_nodes":[],"categories_segments":[],"categories_sizes":[],"default_left":[0,0,0,0,0,0,0,0,0,0,0,0,0,0,0,0,0,0,0,0,0,0,0,0,0,0,0,0,0,0,0,0,0,0,0,0,0],"id":40,"left_children":[1,3,5,7,9,11,13,15,17,19,21,23,-1,25,-1,-1,27,29,-1,31,-1,33,-1,-1,35,-1,-1,-1,-1,-1,-1,-1,-1,-1,-1,-1,-1],"loss_changes":[3.319779E1,1.3185375E1,6.699977E0,4.000477E0,6.4567385E0,4.5506134E0,3.5998974E0,2.507946E0,2.8270392E0,1.912379E0,1.6603446E0,3.062749E0,0E0,2.6974435E0,0E0,0E0,2.131587E0,1.0101537E0,0E0,1.6643405E0,0E0,1.9628193E0,0E0,0E0,2.1218176E0,0E0,0E0,0E0,0E0,0E0,0E0,0E0,0E0,0E0,0E0,0E0,0E0],"parents":[2147483647,0,0,1,1,2,2,3,3,4,4,5,5,6,6,7,7,8,8,9,9,10,10,11,11,13,13,16,16,17,17,19,19,21,21,24,24],"right_children":[2,4,6,8,10,12,14,16,18,20,22,24,-1,26,-1,-1,28,30,-1,32,-1,34,-1,-1,36,-1,-1,-1,-1,-1,-1,-1,-1,-1,-1,-1,-1],"split_conditions":[6E0,3E0,6.0082006E-1,1.4205328E2,4E0,3E0,2E0,5.9052685E1,2E0,1.8009214E0,1E0,4.155189E1,-2.2432745E-2,4.5362144E1,-4.164902E-2,7.958218E-2,3.03E2,6.2748966E1,-3.8346097E-2,8.5E1,-3.1065932E-2,1.3007912E2,-4.4139814E-2,-1.9900464E-2,2.400608E2,-1.9080099E-2,8.58119E-2,4.7838178E-2,-3.578092E-2,1.1635421E-2,8.242669E-2,5.6723654E-2,-2.76773E-2,6.227554E-2,-3.2423068E-2,9.592309E-2,1.2340849E-2],"split_indices":[12,18,9,3,2,18,2,0,10,16,1,0,0,0,0,0,4,0,0,13,0,3,0,0,4,0,0,0,0,0,0,0,0,0,0,0,0],"split_type":[0,0,0,0,0,0,0,0,0,0,0,0,0,0,0,0,0,0,0,0,0,0,0,0,0,0,0,0,0,0,0,0,0,0,0,0,0],"sum_hessian":[2.0119704E2,8.564475E1,1.1555229E2,5.3117264E1,3.2527485E1,2.4639307E1,9.091298E1,4.4609695E1,8.507569E0,1.3906339E1,1.8621147E1,1.1403557E1,1.323575E1,4.818124E0,8.609486E1,3.7092545E1,7.5171504E0,4.9359303E0,3.5716386E0,1.2294909E1,1.6114297E0,3.7153907E0,1.4905757E1,3.0636415E0,8.339915E0,3.1735947E0,1.6445292E0,5.5846243E0,1.9325262E0,3.2553813E0,1.680549E0,1.1194469E1,1.1004391E0,1.5769684E0,2.1384223E0,4.961259E0,3.3786566E0],"tree_param":{"num_deleted":"0","num_feature":"19","num_nodes":"37","size_leaf_vector":"1"}},{"base_weights":[1.6544634E-2,1.2373188E-1,-3.0145139E-1,1.999532E-1,-3.6667626E-2,-4.6528402E-1,-1.0543284E-1,2.8328496E-1,-1.6999897E-1,-4.4890106E-2,-6.55319E-2,4.9059176E-1,-3.8571578E-1,1.769816E-1,7.226054E-1,-2.6604426E-1,7.0141345E-2,-3.8073722E-2,7.6788336E-2,1.0818061E-1,-4.3483146E-2,4.824831E-2,-3.9246008E-2,-1.750604E-2,2.4112541E-2,8.090305E-2,1.5401113E-2,3.1329203E-2,-3.7269644E-2,-3.815576E-2,7.4380904E-2],"categories":[],"categories_nodes":[],"categories_segments":[],"categories_sizes":[],"default_left":[0,0,0,0,0,0,0,0,0,0,0,0,0,0,0,0,0,0,0,0,0,0,0,0,0,0,0,0,0,0,0],"id":41,"left_children":[1,3,5,7,-1,9,11,13,15,-1,17,19,21,23,25,27,-1,-1,-1,-1,29,-1,-1,-1,-1,-1,-1,-1,-1,-1,-1],"loss_changes":[7.1212134E0,7.0193224E0,1.642859E0,4.3260417E0,0E0,1.0515227E0,4.412229E0,5.1786613E0,2.8608024E0,0E0,3.2448692E0,3.982204E0,2.1366718E0,4.6368937E0,3.1434088E0,3.4292245E0,0E0,0E0,0E0,0E0,3.0725684E0,0E0,0E0,0E0,0E0,0E0,0E0,0E0,0E0,0E0,0E0],"parents":[2147483647,0,0,1,1,2,2,3,3,5,5,6,6,7,7,8,8,10,10,11,11,12,12,13,13,14,14,15,15,20,20],"right_children":[2,4,6,8,-1,10,12,14,16,-1,18,20,22,24,26,28,-1,-1,-1,-1,30,-1,-1,-1,-1,-1,-1,-1,-1,-1,-1],"split_conditions":[4.6869426E0,6.599956E1,1.3927281E2,9E0,-3.6667626E-2,6.626922E1,1.6508548E0,1.4102606E0,4.2091174E0,-4.4890106E-2,1E0,6E0,1.3960419E2,2.1500111E2,3.7704847E0,8E-1,7.0141345E-2,-3.8073722E-2,7.6788336E-2,1.0818061E-1,1.5012257E2,4.824831E-2,-3.9246008E-2,-1.750604E-2,2.4112541E-2,8.090305E-2,1.5401113E-2,3.1329203E-2,-3.7269644E-2,-3.815576E-2,7.4380904E-2],"split_indices":[16,0,7,18,0,0,17,9,16,0,6,12,7,4,16,9,0,0,0,0,7,0,0,0,0,0,0,0,0,0,0],"split_type":[0,0,0,0,0,0,0,0,0,0,0,0,0,0,0,0,0,0,0,0,0,0,0,0,0,0,0,0,0,0,0],"sum_hessian":[2.068301E2,1.5514583E2,5.1684265E1,1.377627E2,1.7383139E1,2.7405243E1,2.427902E1,1.1262759E2,2.5135109E1,2.1779764E1,5.6254797E0,7.5255394E0,1.675348E1,9.1814E1,2.0813587E1,2.3705837E1,1.4292716E0,4.400237E0,1.225243E0,2.2934191E0,5.23212E0,1.150716E0,1.5602765E1,2.1777912E1,7.003609E1,1.2887446E1,7.9261417E0,5.300685E0,1.8405151E1,3.9726994E0,1.2594209E0],"tree_param":{"num_deleted":"0","num_feature":"19","num_nodes":"31","size_leaf_vector":"1"}},{"base_weights":[-2.2788605E-2,-2.5181407E-1,1.5852912E-1,